3.817679036067356257e-02 -2.465475068121055768e-01 -3.718424271973244100e-01 -4.631748897363512363e-01 -1.396419779105211312e-01 -3.260085098089978706e-01 1.082644427449737101e-01 4.614397180276186283e-02 4.601525645380580842e-01 -3.091229949523299769e-01 4.950984402530946848e-01 1.065622528716857476e-01 1.382248004027736982e-02 5.631031073154038613e-02 3.032591863273681465e-01 4.593098950752106946e-01 -1.255953655950238224e-01 -3.332313464052405472e-02 4.720855984198765176e-01 -1.325545109098962282e-01 -2.203845543223886816e-01 -2.936790609534219998e-01 4.898771026890806901e-01 -3.158908163147283732e-01 -3.675607646261528361e-01 4.142594366467590161e-01 5.856061892354280651e-02 -2.300952041484481958e-01 -1.729485737737633810e-01 -4.280193156977156743e-01 1.406772175921192636e-01 -3.560294529865745128e-01 -4.896733002405253554e-01 -4.424722613335668187e-01 2.315669161533950027e-01 -2.026787453117583626e-01 9.706046412445058780e-02 2.327147824711832680e-01 -1.573734919633880402e-01 3.025828463160951110e-01 6.781336798315226733e-02 4.587569702602017907e-01 -4.794617813999246803e-01 4.782543401965750340e-01 1.985780160643355885e-01 2.417471620474148930e-01 4.235382056388833916e-01 -2.597036699705047025e-01 7.716342764792150088e-02 -3.462478068388197272e-02 -2.028218635543455606e-01 7.565354924514414159e-02 3.907684248368188396e-01 3.700738523060278506e-01 5.602187494464150319e-02 1.243571902639994953e-02 -8.295779386135926359e-02 3.115958251597896744e-01 2.212847100010612023e-01 4.528609680993919140e-01 1.343308729331933460e-01 -3.210934904704018655e-01 1.992480707202790025e-01 2.586946068210621008e-01 2.693747510181734306e-01 -1.516137576226240513e-01 4.307621835091813844e-01 -2.364909807776643391e-01 -2.931991892797689014e-01 -4.344277606186403712e-02 -4.940219575288992138e-01 1.621651280903275427e-01 1.540012960012084597e-01 4.026489904450638591e-01 -3.439928389315545787e-01 2.231044012258028564e-01 4.698190907778558856e-01 -2.556736426529243045e-01 4.783235316545996763e-01 1.013668003541787349e-01 3.320483270798552100e-01 1.184309957891532816e-01 -3.574470002139141789e-01 -3.149931849581539822e-01 4.146177578800341879e-01 4.190603464652702392e-01 -2.908988275997114181e-01 1.924922644957543713e-02 -1.689136470160973735e-01 -2.757501017812359900e-01 -2.698498337057609331e-01 -3.932768413272289543e-01 -9.782265355968058906e-02 -4.212055179339777577e-01 6.027735300354732789e-02 -5.396333867815999996e-01 -3.164273261819794958e-01 -4.544624370165289973e-01 -2.076556276982055305e-01 -4.340677470407380834e-02 -5.669158548671233699e-01 9.174584138477111239e-02 -3.104983493018392271e-01 2.150881864915344943e-01 -3.514131810602448280e-01 -3.126549762235503183e-01 -1.792181316323273044e-01 -1.670908382627262212e-01 -2.654240594638127559e-01 3.399495213859888287e-01 -1.140346275650585550e-01 -4.230526049525147325e-01 3.659375136266940221e-02 -4.726419957149671225e-01 3.353825881425740452e-01 1.528509751462590535e-02 4.587942100426644632e-01 1.126076627960824889e-01 8.131790098575482351e-02 -1.382834874965006289e-01 2.267898454490999138e-01 -2.786199591761551742e-01 -4.999017302722960632e-01 4.802903596729735103e-02 -4.025043316645051661e-01 2.493292338097111149e-01 1.769320968121691484e-01 -4.179242385550293037e-01 -6.645974262202640759e-01 -2.188936278587336748e-01 -1.721648463239633386e-01 -5.100648330864915314e-01 -4.261277913016435770e-01 -2.004807365146864806e-01 -2.107052876061425717e-01 1.291856712243533156e-01 7.698844887212703825e-02 -3.074042062561236355e-01 -4.709456100378685006e-01 4.992862191671962879e-01 1.744630876048705037e-01 -3.892317945416053915e-01 2.998564675518619604e-01 -4.764563124930948357e-01 -4.380731254706396460e-01 -2.680996742657408907e-02 -2.461713257868876903e-01 -2.528208822665390931e-01 -5.003217756583633324e-01 -5.286979283677023522e-01 -1.113872008764394267e-01 1.877655105948065617e-01 1.460432661460318859e-01 -4.694521412296046581e-01 -1.386240191689191159e-01 -2.750459236660390272e-01 -2.611386554154749851e-01 -3.222770858006460126e-01 -5.608723340783701161e-01 -5.724327684202257238e-01 -2.704912443482783146e-01 -4.542734711398387359e-01 1.928204538927264233e-01 -2.958521972856003601e-01 -2.717155644940331127e-01 3.782020378312962450e-01 1.529756749487744538e-01 -4.635042328158200942e-02 1.057992036145452008e-01 -3.938288097448270908e-01 -2.010994610151421447e-01 2.537100735546243269e-01 -3.387702657482875579e-01 -2.751110493303446369e-01 -1.624059274857873880e-01 4.375273920217149781e-01 -1.584334687784543991e-02 1.682684435831612868e-01 1.622950445517929996e-01 -3.302435359947809013e-01 -5.069769399425538142e-02 1.573304001378784955e-01 8.389207542983836974e-02 4.595309038564019399e-01 -1.596747486052450815e-01 1.754042115416077907e-01 1.939721379358715914e-01 -3.342429215172138535e-01 -1.898264777631457068e-01 -2.798986028952868965e-01 3.013279667305360787e-01 -3.307227080430616417e-01 -1.500672707336479506e-01 2.698634355938316354e-01 2.714228436993959548e-02 -2.952991948366211483e-01 4.655387155951421496e-01 -4.525310745133349632e-01 7.260327702298868813e-02 -4.191984377027312414e-01 2.513841334884001633e-01 -1.940474246411967307e-01 3.917077508356485438e-02 3.427814971214624730e-03 -2.840262407819236223e-01 3.647743824766869203e-01 -1.019715854014592443e-01 3.003814140743589212e-01 2.648826918398885510e-01 6.412157358360824899e-01 3.726429025303167886e-01 6.163314659786278682e-01 5.869100114364758092e-01 4.651964466816407295e-01 2.634433933404665140e-01 2.075509746318275617e-01 3.341639428923668942e-01 -1.862684407629982275e-01 -1.505346591718854377e-01 -1.201612676648181055e-01 -2.368421276063382985e-01 -3.344947002345800002e-01 4.427346431836866603e-01 3.710199308737899965e-02 -3.364071927056710432e-01 4.886046953076508270e-01 8.200962518587433248e-02 5.064543675880869289e-01 -2.550995569181695455e-01 4.241258346223498732e-01 1.653615733732430593e-01 -6.064062301812769146e-02 2.467570010111137246e-01 3.114584669072953949e-01 4.128228389415088961e-01 6.325411058194613245e-01 2.532619997662730049e-01 3.048001187934753498e-01 6.329664606823587336e-01 3.976673502380685399e-01 7.134317118698949578e-01 4.722426084397644552e-01 3.090915670846740015e-01 -1.035309729813149310e-01 3.962454369457162340e-01 -2.767065650043505909e-01 1.651598430444602694e-01 -6.808408423640396889e-02 4.727919955700694149e-02 8.652360524809908637e-02 -4.776499785910761076e-01 -2.195181466453224872e-01 -9.714978521274873768e-02 9.409922201009005005e-02 -1.888518723641792850e-05 -2.201718906586411229e-01 -2.742375896329791174e-01 4.096552541486637167e-01 6.624976474146092309e-02 -3.514355973673449762e-02 -1.544450594537662980e-01 -2.294111752017130579e-02 -2.103101552917456263e-01 2.877934008357106443e-01 1.450860550887398681e-01 6.397006685325171693e-01 6.811011113680019990e-01 5.788250038467542824e-01 1.858371269696528494e-01 1.126238133732262309e-01 8.959680991449697762e-02 -2.403301509751640253e-01 4.387394193401191744e-01 1.240496411819101003e-02 2.652346906692160666e-01 1.058543887090820507e-01 -3.692623050211814584e-01 -3.704234376176016585e-01 1.872339863754660452e-02 5.621806903759943991e-02 -1.418553862727783554e-01 -4.532937611877994599e-01 -1.624974043983196115e-01 2.107583501954672089e-01 1.802716483150419713e-01 -2.720896734589011157e-01 5.422391096637015906e-01 2.015545959966723866e-01 -4.680691926714337231e-02 3.411825931890416497e-01 2.248726062996932173e-01 9.348590559662828259e-02 5.450009504540797023e-01 2.610393151381859567e-01 1.117381514290444328e-01 1.031984189630980042e-01 4.551339150369999031e-01 2.865779335446879683e-01 4.453712681262082529e-01 3.233484417598100902e-01 2.658671968998819191e-01 -1.755142970605410094e-02 2.336443277916611105e-01 1.181581970505536511e-01 1.403921927125807712e-01 -5.669301625085454432e-02 -3.571089239482385519e-02 9.457185659412209455e-02 3.095258180165314510e-01 3.914761112853062941e-01 9.003062472261723348e-02 -3.069815430812425361e-01 4.190754554240940788e-01 7.688753428249209265e-02 1.356062775096969208e-01 1.211332460059156846e-01 2.958553317309532971e-01 1.746074421337135141e-01 -1.651202219158606210e-01 2.878576513842077134e-01 1.398300300016549202e-01 9.335494704800892385e-02 4.911009466043050886e-01 2.884489285875782572e-01 -2.023834420812348767e-01 -7.140472101741851541e-02 3.845690690287624780e-01 -9.420724159318581703e-02 2.630396370324606381e-01 -9.582047321419220887e-02 2.330582069507348142e-01 3.380095574554631277e-02 3.406953723742430218e-01 -3.956523835248840770e-01 2.129220763824612450e-01 -4.011097115185078277e-01 -1.017205793315427015e-01 1.102064227410352315e-01 -3.472443713235062734e-01 3.501189788092836652e-01 -1.686054028989805720e-01 6.125528557949694308e-01 -1.068710398336428224e-02 5.489154200700431252e-01 -1.865557109417191883e-01 3.221885807596334139e-01 6.792191521648868746e-02 -4.386042511973484159e-01 -1.981903485970016865e-01 -1.575788146792655720e-01 -1.641209855046042720e-01 -3.093036549685039827e-01 6.083737579135048978e-01 -3.751455106802115136e-02 1.700267517890679814e-01 1.023432202215662085e-02 5.451864129912465939e-01 -2.263837860275760006e-01 -1.128629762222348593e-01 -2.000278316861041628e-01 -2.026381850580070698e-01 -2.272566179146208454e-02 -2.745286851724632604e-01 1.982792997146555145e-02 -3.911354416930590827e-01 2.699375393379203070e-01 -1.810290588494929409e-01 2.032068023845315929e-01 4.334729826382605622e-01 -1.421093595359964601e-01 8.175592245459263607e-02 2.852158634655499458e-01 3.509257005849885092e-01 -4.767677386317590860e-01 1.534921765064725108e-01 -6.699393579520586117e-01 -7.586064991197074558e-01 -1.430020418826384310e-01 4.183266824960906738e-01 -1.291281393219335938e-01 -2.910440755849626471e-01 5.837841055722571282e-01 1.908354230989358358e-01 4.629945129776003587e-01 -2.284513370752707107e-01 2.270265872734952839e-01 -1.433099952751114292e-02 -4.195806854512653672e-01 6.442178823918841279e-02 4.565881212395657696e-01 -3.486454852630432311e-01 4.050470892427189828e-01 3.136401530332705301e-01 -3.738480259312629839e-01 3.016162978523004856e-01 -8.384427563428091534e-02 3.877966423531051809e-01 1.122777869154969327e-01 -3.261004167066803294e-01 -2.490100382632382259e-01 -1.426045592762081871e-01 -1.748372200907409579e-02 -4.880803156271806831e-01 7.061568005647503136e-03 -1.853012653322094749e-01 -5.440174616511255223e-01 1.259416231169452338e-01 1.949058019730485480e-01 -1.312706545363878929e-01 -1.508423524836831342e-01 1.181397414582229105e-01 -8.669124280602176491e-02 4.749612106222037000e-01 8.281581865743792292e-02 -2.032345648637395863e-01 4.657862962496214232e-01 -2.704582302033368135e-01 5.392947946675263893e-01 -3.576687816084135885e-01 4.711645013274054494e-01 4.532660119429765544e-02 -5.815436705602528011e-02 -2.221176653597485215e-02 2.244646549775193844e-01 1.537232456228364297e-01 3.529297675197610729e-01 8.002220459420636423e-02 -1.956109410174757673e-02 -9.199886529515204081e-02 -5.092828850836231963e-02 5.361420753079462059e-02 -1.130704270179911514e-01 -5.082695028386238212e-01 -8.379827811657565573e-02 -5.199153602128768759e-01 -2.001943027817739140e-01 3.205021980330041709e-01 1.674128624018964562e-01 5.658770304070875889e-01 -4.713557505258202107e-02 -2.902226125728979977e-01 3.337960250721505040e-01 -3.424422905226585847e-03 -4.208536843134177280e-02 -3.682943844123924282e-01 4.186154954051404253e-01 4.299633449578490474e-01 -1.626966145048425738e-01 3.469734668819116630e-01 3.259461138593554574e-01 -2.876820374226353727e-01 -5.279047836453735348e-02 4.162071116358488365e-01 -3.772601522736206969e-01 -2.811448879488359087e-01 3.254832593110592795e-03 -1.343535405816946027e-01 -2.393692441103699442e-02 1.590545326766806267e-01 -3.541266482744402366e-01 -6.362709157675529303e-02 -1.405955671779685334e-01 -3.692423182488403510e-01 -3.544806309487690821e-01 3.695539456187212773e-02 2.787549949215807343e-01 1.164972930556455039e-02 -3.788605016632902722e-01 2.883082409659483147e-01 -4.376067521430609397e-01 3.967262747104032816e-01 -2.667193567911985697e-01 4.241820829565324247e-01 4.323723906459914224e-01 9.321237267722914943e-02 -4.320343419349292335e-01 -2.760331142084222478e-01 4.763729887548742714e-02 1.970512840983811298e-01 -4.309690658255383999e-01 -4.383878703902465146e-01 4.652427817788283571e-02 -1.452828490613509993e-01 -3.466162168004125466e-01 -1.184773230346008593e-01 5.828677286507202848e-02 2.997474800560382194e-02 2.001055037192203678e-01 -2.151258126333857601e-01 -2.489147263257528164e-01 -1.475710646176893737e-01 1.039483392097462731e-02 1.246788142903925978e-01 -1.000117177781583433e-01 4.027498645617212936e-01 8.094714195845829907e-02 2.750326686219369265e-01 1.127318114166647595e-01 1.661021577184015885e-01 9.624161325285167379e-02 -1.563980177118429182e-01 4.235570695870694014e-01 2.596673647082561875e-01 -4.165709665444722321e-01 -3.520750683287638960e-01 -1.665727490675869560e-01 -4.901684291004977378e-01 -9.111604433666650737e-02 -5.453890382669766002e-01 2.319719788105570057e-01 -4.734416357315857082e-01 1.607652940725251556e-01 7.103096507235943935e-02 -2.073563723554384675e-01 9.683305234745440138e-02 -3.146186903735370688e-01 -4.085234396969008586e-01 -1.545110591640734277e-01 -2.693508043495418947e-01 -7.581728630910109998e-03 -4.837266895142514622e-01 -2.017475427778479824e-01 -3.289577617065959636e-01 -1.960979994238888358e-01 -3.589860237611567362e-01 -1.570624713109933235e-01 -4.428846766910750077e-01 -4.723175968825955029e-01 -1.348085550450879022e-01 -2.013778820127017921e-01 1.157723660602194837e-01 3.094048568721696757e-01 8.835133629151337153e-03 -1.902909528772897887e-02 -3.218645135363244481e-01 2.333039029570994627e-01 4.183600721748622631e-01 2.810230832320495878e-02 -6.622495842051680237e-02 1.025855326719571498e-01 -4.961282357260236586e-01 -3.281560095446547365e-01 1.281385515333413883e-01 -4.581667180595892508e-01 1.748791980194761564e-01 1.214889924234384827e-01 3.903394244463471718e-01 2.214685508122778979e-01 -4.707588971556124491e-02 2.681513401885043391e-01 -6.284470284398437079e-02 1.299867153007096821e-01 1.315128420653268182e-01 2.313722309727376802e-01 -2.044131732701237603e-01 -4.352262086619367865e-01 1.967054888350462660e-01 -2.444503681822497443e-01 -3.052616585935489790e-01 -1.727569210144851153e-01 6.406214463263970593e-02 -4.090594795806748452e-01 3.824794741259970321e-01 -2.088854859946647768e-01 -1.406485195559964152e-01 -5.686951564788796931e-01 -2.798993523304770664e-02 -1.812845247689855166e-01 -5.578658620606263829e-01 -5.759011990810781745e-01 -2.847848148921436340e-01 -5.247890241223432395e-02 6.965516342077122947e-02 -2.112619660846595526e-01 -1.568005072280883594e-01 -1.553521589072909270e-01 -1.828024296529885337e-02 1.065200079952097478e-01 -6.721017470927827253e-02 1.579508283028427940e-01 -5.352545227780334258e-01 -3.345136216776464222e-01 -7.951599658847645358e-02 -2.296708381003327026e-01 -2.583650166497422629e-01 -1.767615992227560551e-01 -3.905816055728189573e-01 -3.665045113667575460e-02 -4.007516459978738288e-01 -3.472748644532384632e-01 8.448320193255082211e-02 3.761006901415115955e-01 3.286547025332940408e-01 -2.718758787933623355e-01 -1.152310392362560290e-02 -4.537793452991027432e-01 -8.472588520700130577e-02 4.586594915461737476e-01 9.728414562682349831e-02 -4.443983392249552522e-01 -2.611806165889803411e-01 2.087298181602440517e-01 -3.296173960555838223e-01 1.194900487183860882e-01 -6.570074961898175747e-01 -6.656016752334918962e-01 -7.931485885443482209e-01 -1.597430904007289543e-01 -6.251902516792441356e-01 -3.017062566419739245e-01 -4.910357479983366580e-01 -7.571492554344247394e-02 -2.016665439094739720e-01 1.818342573481651625e-01 1.879059598829140310e-01 2.329853032541215618e-01 4.904788714504815239e-01 -8.186674049686071264e-02 -1.625755467848217020e-02 -3.083392647629139630e-02 1.417533984851778173e-01 -4.134705430564556417e-01 4.444220945057379413e-01 2.536734299821320482e-01 -5.547297898927396748e-02 -3.226904296727294841e-01 -7.079209771639637105e-02 2.713112891119058290e-01 -2.929070523823904537e-01 -3.028195682444990711e-01 1.973617438375318833e-01 -1.202229351000691088e-01 3.054674495812892410e-02 1.120588038948393123e-01 2.763357357230568009e-02 -1.189508641403023981e-01 1.138128781897164293e-01 1.695298291120552470e-01 2.977567620892860312e-01 6.774893925812604245e-02 3.862677654654067538e-01 2.896973229307849840e-01 2.274791977433028578e-01 3.037040132874802012e-01 -1.800071650785588506e-01 -5.784582139750593655e-02 4.796308719001992626e-01 4.560461824784655116e-01 -2.586642993245716893e-01 9.321853267852821257e-02 -2.288823601985773004e-01 -2.438446620083306038e-01 -3.537650285707694686e-01 1.169809641567016167e-01 -3.296196855082313415e-01 2.205355429464229133e-01 -2.075957679024019453e-01 -3.253448390766804366e-01 -2.180992543073401735e-01 -7.365357189007156746e-01 -5.862575987429034102e-02 -3.056082415498526661e-01 -1.703140946524226221e-02 -6.219170423564771566e-01 1.078915129441246762e-01 -4.395766232462809953e-01 6.284217542702189019e-02 -3.534810141949809026e-01 3.716356337983112712e-01 2.655932036949024133e-01 2.552159906574611448e-01 -8.329947708142659835e-03 -4.561283434640542866e-01 -9.502109995093155348e-03 -2.863125021395916403e-01 -2.875722581528865063e-01 5.148871107000974057e-01 -1.508749820299156996e-01 6.344683813943120532e-01 1.117833911195943858e-01 3.547343834172696497e-01 2.352433281732089487e-01 -2.188497931226006943e-01 5.994106175000481034e-03 1.586626819600835125e-02 -1.260512951253596470e-02 8.198115656781838900e-02 1.146095096272344849e-01 8.953239255515052508e-02 -1.058997421527750615e-01 -4.669566612051175014e-02 -2.490547246321747898e-01 -1.103302764039757189e-01 -3.973940634493103481e-03 9.232605838386878649e-02 -2.186148667137707002e-01 -1.607303006638127751e-01 -1.610820425486108043e-01 -4.764126337760667997e-03 4.970087599482329033e-01 1.020667034373322624e-01 -4.203977888730765500e-01 6.170197314488812951e-02 4.317801794050789010e-01 6.259364330250503927e-02 -2.529352392830350738e-01 2.455686141074752415e-01 3.107445017975218327e-01 -1.637092066421019509e-01 1.588965040400771300e-01 5.786425960336724073e-01 2.671432886965690590e-01 7.072018178233654973e-02 5.313177039937154733e-01 1.749750772227275930e-01 1.650734054495344438e-01 3.336962271710502415e-01 7.120087976725693324e-02 4.731512643944832397e-01 5.424222081436471665e-01 3.230096591318562527e-01 4.259947452992842165e-01 5.396830627278693254e-02 4.300078193521134073e-01 -1.758600350679535018e-01 3.208013574511302535e-01 -2.280054373109210442e-01 -4.870689687099256648e-01 -2.219825704891587037e-02 2.800152407759644024e-01 8.303255107129037249e-03 -2.355968071016500964e-02 9.464447357992358811e-02 1.320843292721189388e-01 -1.249838494675181155e-01 6.155083420883196432e-02 -3.101687595948354748e-01 2.557256050408972525e-01 4.600228777174950739e-02 5.096005368109423062e-01 1.097656301531163975e-01 -2.146513816838321528e-02 4.412329907264246343e-01 2.944662486578289995e-01 8.537684444230168868e-02 5.988853104079348844e-02 4.446183188299546729e-01 1.813213116333863839e-01 -2.044569455293518134e-01 -1.830985531723657578e-01 -3.711460626752118852e-01 -9.643426055452332391e-02 -3.459585428031228954e-02 -1.629258969197595608e-01 -4.599449411070158922e-01 4.774773071330183916e-01 -3.357644992627883962e-01 2.739999988507899609e-01 2.569101802639062182e-01 7.931418365908615709e-02 -1.059471866265195850e-01 1.781296549454159661e-01 1.887455325916279070e-01 5.032554195783751627e-01 -4.264577411460441780e-01 -4.192274578693267473e-01 -3.200300825520064896e-01 -1.264583442462692831e-01 4.685618050045916028e-01 1.432748155686019709e-01 2.297239709344448544e-01 5.423078148530451059e-02 -2.339564490097564009e-01 3.106169991421568466e-01 -1.144238053561765500e-01 8.140084989884055489e-02 -1.164407576828788426e-01 2.550462869353490314e-01 4.625256219133851987e-01 -1.265446743377541539e-01 -2.272338850805415422e-01 -3.053927806591880678e-01 -1.068066100780868943e-01 -2.532474582503667637e-01
1.554948640092264078e-01 -4.505928685977221848e-01 -3.285821813793038393e-01 -6.578470378739487145e-02 -4.260749573427273784e-01 -2.031242821758799666e-01 -2.111119346725421897e-01 4.366805612319375474e-01 2.668511285934949129e-02 -4.189849974985193626e-02 -3.115068040746784561e-01 2.073866035030038635e-01 9.080799877298331713e-02 3.453180327700339780e-01 2.385234798614999097e-01 7.223539296591074965e-02 -2.654978060361572467e-01 2.430922224115233954e-01 1.395079686491099702e-01 -1.708710553821624067e-01 -1.183660053369998133e-01 -2.961989487628245987e-01 5.905030339204386802e-02 -1.512756680816348398e-01 -4.366441033714729691e-01 1.248476977768834262e-01 3.199379793878889267e-01 -8.389164615608402098e-02 4.907439071952265364e-01 -3.741132394067564482e-01 2.316308701996161457e-02 1.021318004984286265e-01 -6.645400189308796335e-02 1.147721954994492671e-01 -4.427691592229937023e-01 -2.057991816281025954e-01 1.279235833819786783e-01 5.856083825343342403e-02 -1.469912374797497810e-03 1.310976167597829867e-01 2.858135610524192294e-01 7.251875461614598617e-02 1.997186792174883152e-01 2.283483651363515943e-01 -2.542246630828250420e-01 5.354518325601329704e-02 4.151050523436759510e-01 -6.370127520360389928e-02 1.529598525135290044e-01 -6.939551375303019964e-03 -2.475867670132980147e-01 1.559182409698832428e-01 -2.777487821742441465e-01 2.843571585321176265e-01 2.866916554712128917e-01 -1.140867737472383014e-01 -2.809094366665348952e-01 4.374187296101607059e-01 4.357949678786569581e-01 -1.899250126729597754e-01 -4.386423544519164053e-01 4.625212769246224709e-01 -4.916442553732433551e-01 -1.875071981089609097e-01 -3.994670874090270329e-01 1.743797593391228917e-01 -1.522796417333362184e-01 -1.653882683348925908e-01 2.321212901150020991e-01 2.192513049124297508e-01 1.628692885262216297e-02 2.318315844252759883e-01 2.809170907086139812e-01 5.542883367221803498e-02 1.294095353883734645e-01 3.035880866363574460e-01 -2.634583440506948690e-02 1.367005670461890476e-01 -6.521830317150168269e-03 2.228824613026278989e-01 -4.674532912640219640e-02 2.527810327143706348e-01 2.770141586086443120e-01 3.847139393518596018e-01 3.201188575632085698e-02 1.563715121361176630e-01 -4.937379423033908671e-02 1.082968540278668040e-01 1.923028790510256381e-01 4.824087037580769288e-01 2.981817806518006764e-01 2.739567033078018632e-01 -4.240101992951939014e-01 5.471298742813505145e-01 -1.364539209571197231e-01 -6.803723168799981347e-02 -3.779657931802725135e-01 1.760409753486071871e-01 -3.787150372357054873e-01 4.479821571621332987e-01 1.523314572822112301e-01 5.022885053266754052e-02 -3.015010904194672658e-01 3.746098526093516196e-03 4.641324058974206079e-01 -1.989225371821840838e-01 3.782629618492445722e-01 2.252269132272279040e-01 -1.407199570252169185e-01 -2.444574742626001163e-01 -1.783121130104435847e-01 4.919331614670922059e-01 1.980722957138375540e-01 -4.799825783223949927e-01 -4.149809181578401063e-01 1.105542933512532466e-01 2.805886930494770337e-01 -3.761571882621056462e-01 -1.975307591051760625e-01 -1.461631464967430849e-01 3.837340258122007852e-01 -4.537435759893887477e-01 2.749343392995772795e-01 3.711904178892550532e-01 2.087826204974277053e-02 1.126054738157965945e-01 -1.426667307905159221e-01 -3.538067260175868922e-01 -2.461002587292867305e-01 -6.264520719738661016e-04 4.160025725853883083e-01 -2.448857878849556302e-01 -3.067727557281450523e-01 4.695375717760340017e-01 -8.399292091351015510e-02 1.998534817353814497e-01 -2.737852475598404056e-01 -4.371772243508892375e-01 8.773360212540137412e-03 -2.790632718904363374e-01 2.007210049947764086e-01 -3.357520251915449006e-01 4.784906119397588364e-01 -2.156167187711677258e-02 -3.031452149973896670e-01 1.406366478989923285e-01 -5.174493646295854621e-01 -2.882880386861398914e-01 -3.577833562254122968e-01 2.749494289427491522e-01 -3.577141830760753316e-01 -4.136577457394854246e-02 -4.888412801654020146e-01 -3.350312202809782591e-02 -4.884035592312512830e-01 4.318345493168831428e-01 -1.341005029981233998e-01 -1.934586290480995105e-02 -5.976887760366549063e-02 -9.267498685084181453e-02 2.428760771526146389e-02 1.515174456805983283e-01 3.265367552669690698e-01 -3.492106412921759939e-01 1.622475055623897877e-01 -4.983073715562486017e-01 -4.009221773299344038e-01 -1.532453964725899453e-01 2.345934827198862260e-01 -1.565714892965022198e-01 -5.421590003123680224e-02 3.827517501788410548e-01 3.755675111518602671e-01 3.094633836255974435e-01 2.072153979241659616e-01 8.576052795817309948e-02 2.743815049806437867e-01 -1.084436572461879023e-01 -3.597848378912732459e-01 -5.429466862446956643e-01 -3.115642618434006361e-01 1.932688849151876533e-03 9.713782674386052529e-02 -2.532202619057878357e-01 1.519901363555796470e-01 -4.408961119134122836e-02 -2.791024151154650190e-01 -3.686416022378270485e-01 1.900760956229665677e-01 -4.734301185085580399e-01 -3.712961755807608899e-01 1.217467376565069606e-02 3.300913658944510942e-01 1.708094277884008791e-02 3.768598828845376447e-01 9.187629665668355095e-02 -3.322709000295980264e-01 9.611460217450398802e-02 3.639718404321259371e-01 2.922672615500449544e-01 4.112203838016354474e-01 3.279428491410326958e-03 -1.230854867587982682e-02 -2.888361872254388008e-01 -6.488834990656778823e-01 -1.414105410664987517e-01 -8.799942331078688951e-02 8.279013663751627616e-02 -8.732309547288276408e-02 -2.225384290357483585e-01 2.496599678692529856e-01 2.685157508427939432e-01 4.071679928155840650e-02 -2.555959427276144336e-01 2.396469227029557614e-01 -2.732466927812530200e-01 -4.034338796804263771e-01 -1.314932774080253830e-01 -1.985116797622184515e-01 -1.008670678732345727e-01 -6.103226796072138693e-01 -3.031206001554007101e-01 -1.834102150605441683e-01 -2.081804845298899920e-01 2.697689131195646350e-01 4.881258318593964529e-01 4.042319121710810648e-01 -4.798175225719122361e-01 -1.703675533434491629e-01 -5.164223475234323013e-01 -3.118879019503591477e-01 2.173376503603109966e-01 -1.365837798160599026e-01 -3.918213527772251847e-01 -2.638849556832373322e-01 1.480884494703876009e-01 -1.322062904804939543e-01 1.269710684383404675e-01 -6.784506271536731858e-02 -2.481222845536020516e-01 2.266272835821072085e-01 -7.910542008560469962e-02 -1.323732026245350302e-01 -6.655133342983470257e-01 1.367951851008718245e-01 -4.350310562527301417e-01 -4.466317859171347604e-01 -3.834040718648017432e-01 2.413250373983721539e-02 -1.781077058225371823e-01 1.136520481902524859e-01 -1.143895217709439555e-01 -7.983939502689865741e-02 2.771137309612136113e-01 -3.130696603116870369e-01 -1.900991626927932554e-01 -5.169980659207316087e-01 7.954695986027582322e-02 -4.774254769921036923e-01 -2.238717541736309213e-01 -3.351711514617466969e-01 -1.538181846111008333e-01 3.245745067186855404e-01 -2.582651528404388830e-01 1.773392609921813912e-01 -2.576586024564126443e-01 2.713795773392681521e-01 -2.294837600619302753e-01 1.533488279571446067e-01 -2.628797137463341760e-01 -3.338168262915712781e-01 -4.272831895191594453e-01 2.258654238618797716e-01 -5.565163463091556961e-01 1.985840558010625867e-01 -7.300100041514899774e-01 -6.790377160817545610e-01 2.905197600784352185e-01 -5.405381737515497775e-01 1.582265919797828935e-01 -7.137292698957332926e-03 4.488896854341891673e-01 -1.777135993949981174e-02 -4.076075639250896776e-01 1.013462504841537992e-01 -5.915207051066017491e-02 -2.394763207535164640e-01 3.952595705185275032e-01 -4.153575623020441115e-02 -2.150723473834629806e-01 -1.144037792706338874e-01 -2.614592177065041545e-01 2.207586682211175877e-01 -5.437721130297515360e-03 -6.760889349476242316e-01 -2.613953931276152276e-01 -9.600833153689913857e-02 -4.584193106002812934e-01 3.174797585103968922e-01 1.716113546947496335e-02 -4.158046465146153503e-01 -3.438406279956635059e-02 -6.271549187485566668e-01 -6.203867372572138272e-01 -6.574555827813582942e-01 2.258465786343352710e-01 -3.736748264927015617e-01 -2.858478674935501229e-01 3.581457560130246742e-01 1.446915144190241698e-01 2.950383595842841489e-01 2.318282592962636612e-01 -2.540273481695558555e-01 8.680054779999592240e-02 1.671735306425502499e-01 5.772115597643911328e-02 2.076854468043944080e-01 2.954413958765747528e-01 1.987185996155135803e-01 -5.449569071588188374e-01 4.838066418103676922e-03 -5.530910404521722779e-01 -6.683820547860858108e-01 -5.883447128205384624e-01 7.882062142206229527e-02 -2.571090950959646904e-01 -1.677817184055038213e-01 -1.344046564672438104e-01 4.252437819544366837e-01 3.059711074901435568e-01 -3.992255629476100798e-01 -2.534975613931631511e-01 -1.976074089691270963e-01 -3.421920945908041856e-01 3.278634141908051691e-01 -2.907540228400403715e-01 8.622430301103519226e-03 -4.135686424526333060e-02 1.209962789554599877e-01 -3.116289048150371888e-01 1.840934927027869650e-01 6.110676169318272205e-02 -4.000420125338411542e-02 -2.149183404848315285e-02 -2.640118254643037954e-01 3.516855400008754851e-01 2.491966297871152369e-01 -3.231088608473275253e-02 -2.572320341002647948e-01 -5.192879377408957664e-01 -6.912911814109299335e-01 -9.349805478206985043e-02 -1.452312598962054169e-01 2.181899282343238433e-01 -1.265583918029463024e-03 6.437740128472890788e-02 1.024818547085942257e-02 -2.057146436520331800e-01 5.650789506670415019e-01 -1.966201540275684667e-01 -9.479185483943676493e-02 -5.076067827308350378e-01 8.892059629344720162e-02 -2.699119389877028263e-01 -4.260504579977969497e-01 2.200684449054666481e-01 -6.404890880678758280e-02 2.372230154722960449e-01 3.258683830296936756e-01 8.884591386457467432e-02 -7.243939406879730536e-02 7.378683511150263552e-01 7.299676123684725737e-02 -2.516934722064335661e-01 4.424708251714821738e-01 -5.583632123573042949e-02 2.381502170147842823e-01 4.093506737338203916e-02 1.461458363476803718e-02 3.502438260831357564e-01 -1.184726901044637903e-01 1.429709752427463509e-01 -1.524628851617670054e-02 3.515809923597441045e-01 5.386830245403706474e-01 8.180562252667904211e-02 1.142837022488939480e-01 2.833641516963603113e-01 4.325064523105077718e-01 -1.212126373025955300e-01 -2.451850902202692695e-01 -2.583060562766789636e-01 -4.484443067831263008e-01 -4.396715037369089973e-01 2.100712021947999386e-01 4.613586474938267679e-01 4.837044306497896851e-01 6.492587153358461149e-01 -3.527143861698987803e-02 2.392017521240279165e-01 1.589100312201372489e-01 5.668528544743781650e-01 4.386212596254931428e-01 2.357931887572167762e-01 -1.387610855683027444e-01 3.659919278312298019e-01 1.006537408605109735e-01 1.207032220888316354e-01 1.555450734761666676e-01 4.739544769602730967e-01 -1.394155595562616978e-02 5.545491561995518071e-01 -3.501516648402820953e-01 -2.246453580478406098e-01 2.788713082614331928e-01 -2.464147319900942823e-01 -1.622363968292575287e-01 3.118219062992492671e-02 -1.526193503158566889e-01 2.192973433339599071e-02 2.968959707023718364e-01 -1.753579723469786966e-01 -2.426999379215921682e-01 -8.977392781328885629e-02 2.616773399858682292e-02 4.337673424885963858e-01 5.458470760673266309e-01 2.933536405329636443e-01 4.443235679363495283e-01 4.189750270741937066e-01 1.409409820400370217e-01 7.070867890684424673e-01 3.539633874635004229e-01 -2.613269389753039018e-01 -5.008983356752925303e-02 4.291441980958138336e-01 -1.868585232079445491e-01 2.761443274878629395e-01 -1.115056573286195840e-01 1.755167476391262527e-01 1.282329804586765931e-01 1.997259612716231481e-01 6.919544360059451393e-02 6.392048415011405971e-02 4.665295519481411635e-01 5.043650610171099835e-01 -2.770898587607003027e-01 3.382109904606865336e-01 -3.807809570196059035e-01 -4.581972217232592737e-01 3.992144752209656478e-01 -3.859850486105162459e-01 -3.269281461556705071e-01 1.615078688751604707e-01 -7.769368416067348737e-02 7.553725039444236788e-01 3.024473825682679612e-02 3.717163848136962878e-01 7.533063097999800339e-01 3.572790660066838542e-01 4.176604039097012722e-01 8.747904468354118779e-02 -1.798848576257884233e-02 3.140998951213697654e-01 5.352597709414819160e-01 4.183260151943941629e-01 4.280151924355176107e-01 -2.312626833088078093e-01 4.545921439259203445e-01 -5.531068503641752530e-03 2.375019829800458782e-01 1.825877894709155569e-01 -2.470236720264491204e-01 5.495447406894783671e-02 -2.840295360979481765e-01 -1.471013159996058806e-01 3.366011164463800220e-01 -2.688972950892982161e-01 6.701759979352668595e-02 -4.490373508062289742e-01 3.557531183783903539e-01 -3.531528617932730985e-01 1.167227885306022922e-01 4.535736234528784938e-01 3.697366045562481274e-01 2.340741374336437197e-01 3.984558780595221505e-01 -3.430563393039017667e-02 5.566217404705116056e-01 3.312477535724588917e-01 2.278687797509456603e-01 2.080259149708486299e-01 2.682188796089963190e-01 -1.235319766294139254e-01 2.348137969308054102e-02 -8.946974578981388426e-02 -1.738686516041800523e-01 3.743689039458116263e-01 3.178003901110555418e-01 -2.062806484283154218e-01 1.463467022886910662e-01 1.658970181844791059e-01 -1.408020408727846638e-02 3.871208446391695701e-01 -2.141953669955803385e-01 -1.765227845512308547e-01 2.384137127117563482e-01 4.254625044203202977e-02 1.127257125889959688e-01 -2.883764719808901145e-02 -3.406802811985986112e-01 -9.848700370644482283e-02 -1.026336990958914286e-01 2.955016843374977387e-01 1.501680619122473803e-01 4.586983763923764279e-01 1.731896938604551850e-01 -4.113693461994424178e-02 2.005160537141705279e-01 7.410931016328686782e-02 2.746660974660802279e-01 2.441689118108683054e-01 4.368231184447043391e-01 3.623144173555831182e-01 -3.614022729726527050e-01 2.073872516033574420e-01 1.163061272734764728e-01 9.463331823930734576e-02 -1.167118449389530355e-01 3.809266027142423350e-01 2.102327095576325411e-01 4.298700445770747836e-01 -5.405218291556157517e-03 4.280408837169159542e-01 -3.541559092209730086e-01 4.993220688829650561e-02 -3.559127077200712752e-01 -5.016243647473850320e-01 2.363053265480485332e-01 5.275435462496819855e-02 -4.921227974633105018e-02 1.177411644586547346e-01 1.722795365246920785e-01 4.046679352939849816e-01 1.532634348998363760e-01 -1.196057499904301796e-01 4.114944426281457734e-01 1.728575992447274959e-02 -8.601798491445983644e-03 4.307094020918983412e-01 -2.218679877374157006e-01 4.612639076554763129e-01 -9.567019646930213783e-02 -2.695151439156453499e-01 -1.464164224805961367e-01 9.263053214707514527e-02 1.581871417296314974e-01 2.319345270849080820e-01 1.468641057366342796e-02 2.112841508625481202e-01 2.957697900612672459e-01 -4.437398609114740489e-01 -2.809600203600438606e-01 -1.060143754276462597e-01 -9.147559601728839918e-03 -2.315669351839939050e-01 8.437892581408218406e-02 -1.317868143403393144e-01 -7.078165555452359259e-01 1.680843298591198909e-01 -1.028430355209756369e-01 -1.020067612962494985e-01 -6.730164369980795591e-02 -9.589835419108634629e-02 -2.679147086915038140e-02 2.400073675745395818e-01 1.364694175965167344e-01 3.036848339510977435e-01 1.484290224887886978e-01 8.621770711032034074e-02 3.118632405856697210e-01 3.783201487304446720e-02 3.839601568446392998e-01 -4.263811932833309060e-01 -3.163952673996392462e-01 3.797596878200720227e-01 3.305150934757389858e-01 -3.128610158102577699e-01 -2.826688924678238957e-01 -4.475502224871244494e-01 -4.429473514361096376e-01 3.811193699267718116e-01 1.922124498119524572e-01 2.430360117873082704e-01 -4.030280532265972382e-01 -3.913248502213190760e-01 -1.770778219625490368e-01 3.894250156234759647e-02 -1.905680235507355713e-01 4.999353908663410895e-01 -2.490152687788617647e-01 4.065845730847621464e-01 1.461916532105930581e-02 3.871944026241909698e-01 9.902005755885871785e-02 -2.333675614911503993e-01 -2.279457742169582191e-01 3.441928381708814211e-01 -4.255063559665220874e-01 -3.257600355612667586e-01 -4.674900999611269481e-01 -1.400731854311838553e-01 -5.055102881633495304e-01 1.680023951505083546e-01 -4.767919800092476623e-01 1.695468690891698826e-01 4.530369450927551611e-02 2.409470791069583395e-01 4.431775398947666589e-01 -4.732826927486786239e-01 1.374937975871277640e-01 -3.762157329303412179e-01 -5.133803631326241401e-01 -1.080483914325642419e-01 -4.533191802766295964e-01 2.431044128086257416e-01 -8.309386211102814945e-02 7.051772214512901094e-02 -1.517538734899975539e-01 6.850187680939226476e-02 -2.020910634345183046e-02 -6.227411963553172169e-01 -1.620889683517494073e-01 1.248189939906281104e-01 6.694981896132157217e-02 3.968153497373593658e-02 -4.879861499818080040e-01 2.252156358982278228e-01 -3.892833654742007266e-01 4.412045830753024700e-01 -4.696271792189948835e-01 2.135305089632303158e-02 -8.855781043897127669e-02 -4.625184258679257976e-01 -2.179913868823413203e-01 4.322523836815579390e-01 1.190437529714363646e-01 1.913134950127646783e-01 -1.547652206094204952e-01 8.369683462879297375e-02 1.726147379578747143e-01 1.916719733687412275e-01 -1.695981332320635193e-01 -4.417550461423295216e-01 -5.467551010389216648e-01 -1.896468626597959672e-01 -5.512227451464677408e-01 -5.996018129038259703e-01 -3.742967606233462696e-01 5.146847069292171534e-02 -1.840529784256100809e-01 -3.749778955269194580e-01 -3.497202629171410060e-02 -2.251489879950935302e-01 3.353559455598817962e-01 4.267628838992822971e-01 9.474469953081798845e-02 3.322987809774468615e-01 -3.922264746919625344e-01 2.295011299860059417e-01 1.643510163480607078e-01 -1.243740816425422668e-01 4.928820890805017951e-01 3.984619999643157495e-02 -4.880552107251710514e-01 1.163420925749062557e-01 2.900861570805129096e-03 -3.243292465619020404e-01 4.361007271884351777e-01 -2.293814449172139613e-01 -8.879104954185412790e-02 1.170197202974553596e-01 -3.115058940890459427e-01 1.266965620556833594e-01 -5.168535421484686532e-02 -5.549988170278088440e-01 -6.089774846438744671e-01 -4.892464783530300343e-01 -2.929879876693941565e-01 -2.468584629550953091e-01 -1.805185088224406653e-01 -7.508297199229356511e-02 -3.496568412672779180e-02 3.892167429296722325e-01 1.195810136700122678e-01 6.488420735717059795e-02 -2.992274759241628224e-02 -2.087498816238110566e-01 -2.776173953151700458e-01 4.211460202840701106e-01 -2.369542441690164480e-02 2.767632708596358126e-01 3.390761587619240958e-01 -3.727581017711083522e-01 -1.539180630981976383e-01 -3.588514121666958601e-01 -1.751312218034317136e-01 2.524294248792693374e-01 -2.252903364886824078e-01 -4.933660040138354574e-01 -3.782943413363213936e-01 3.003895444860679165e-01 -4.881105353841681538e-01 9.191551149686064126e-02 -3.296709302532505048e-01 3.835273201413807453e-01 -9.669076993538897047e-02 -4.721941491480912689e-01 -2.392242221436080840e-01 -1.657362248646648828e-01 2.151958980891710560e-01 3.497685976769055460e-01 4.861274729883526824e-01 1.907136326346222099e-01 -3.187835025694936153e-01 -4.211243208373508518e-01 1.640354476367580916e-01 -8.039006993940622792e-02 3.997752457135561599e-01 1.853221959845686717e-01 -2.332821966958403825e-01 -2.687469175503169883e-01 4.811355569592922210e-01 4.243920253847996427e-01 -2.631645639815046733e-01 3.020820156547048829e-01 6.206699452055473853e-02 -9.989379896894004518e-02 -4.905124362522922943e-01 -2.515558218483594788e-02 3.739572690534572197e-01 3.531517404110914859e-01 -4.202663551870181591e-01 -1.174584655857237314e-01 2.008243119875328386e-01 3.762886960968249150e-01 4.175391249796291393e-01 -1.295398750200691118e-01 -1.741856400529716575e-01 4.759326561183561122e-01 2.119719198024462570e-01 -1.330914419877902155e-01 1.029520551232665782e-01 -2.963388218122856022e-01 1.634444257883480578e-01 4.989121648062387893e-01 -1.106044360277291805e-02 1.340685010681282874e-01 4.709181478622143091e-01 -1.666478097126264935e-01 1.185107363157313909e-01 2.456959792753496963e-01 3.955278889237901496e-01 2.823563773400931368e-04 -2.592179247180422252e-01 -2.585057663016816498e-01 4.555800787750273750e-01 1.480958200731979924e-01 3.118894326243826787e-01 1.773609101478500899e-02 3.777766476327580336e-01 3.982189477346998602e-02 3.891141464049981402e-01 1.208502314022666946e-01 6.354843046229441406e-02 2.249152837659988691e-01 -4.513682193536717319e-02 -2.451483011856111227e-01 -4.992064213177395057e-03 -2.786879935343860581e-01 -3.717985016310371149e-01 1.310045622223120487e-01 -6.760913158521142385e-02 -9.408333509093103064e-02
2.794848819444500920e-01 -1.627070251980570204e-01 -2.000428084783378857e-02 -4.623803067049616633e-01 9.011864106733669111e-02 -3.376034101061193837e-01 1.666794261226232088e-01 1.376337439244974536e-01 -1.249721368836109736e-02 -4.138222333339378611e-01 -2.638020444765103445e-01 4.844351303760697780e-01 -2.216225580782913429e-01 3.442327040760958523e-01 -3.685180090405132391e-01 -4.290096026962321174e-01 -7.659434327673542153e-02 -3.661547143968966189e-01 3.933725442010270745e-01 -9.741435161770573004e-02 4.849473712767579103e-01 3.894554388713856730e-01 -4.803476997559086303e-01 2.087157125207855790e-01 -3.916439014254532447e-01 2.720596497119495139e-01 1.164073588911840318e-01 4.376365045718696445e-01 5.732221485129684879e-02 -4.027805484576582051e-01 4.643596717783081695e-01 3.406841904826344303e-01 -3.384028410342458937e-01 -1.784603445538167632e-01 1.472267056122828766e-01 -4.825372084247870896e-01 2.644997055819194864e-01 3.878195496400743125e-01 -2.053661446247018740e-01 4.909098265726059562e-01 1.607909894856245636e-01 4.998495560485859968e-01 3.215733132438928776e-01 -1.814896174124437656e-01 4.919502000576604361e-01 4.032174453745100973e-01 -2.660466374953076030e-01 1.097711206531620928e-03 4.088085041124071561e-01 -2.996895891053844574e-01 -3.353764732548225602e-02 -7.065036762111298607e-02 2.292209051368732098e-02 4.491418498490038491e-01 -4.655423779653875549e-01 -2.416465906458562518e-01 1.628290124074258660e-01 -3.649360885854282532e-01 1.954030057656489516e-01 -4.748806490889199150e-01 -1.641383023759895865e-01 3.423573547730782152e-01 1.956112141240300140e-01 -1.117797865391095546e-01 -2.568856417762912722e-02 3.361362586992451273e-01 7.283424037389009398e-02 -4.809024407848677685e-01 3.051682089968352218e-01 -4.084405851163858125e-01 -3.275884885659730017e-01 -3.142579964212212085e-01 5.812642622021652050e-02 1.985610979690176914e-01 3.556172816287733185e-01 2.289409998868284155e-02 1.522290153338841934e-01 2.191439248100689186e-01 -3.619327586088179061e-01 -1.688108907210671694e-01 2.724255388557708102e-01 2.728872317872936826e-01 1.013993824813164135e-01 -4.037861127084759749e-01 -1.065193211674789753e-01 4.381161912593135588e-01 -3.366029462792267113e-01 -1.132874501513988497e-01 1.138356350217675506e-01 3.795568091112090370e-01 -1.418947281767724833e-01 -2.000188900231422984e-01 -1.795501304528743791e-01 2.018368563725919385e-01 -2.190032890188789438e-01 -4.580559078598667733e-01 3.563763377158338935e-02 -1.541011341275534130e-01 4.205392101038061825e-01 3.345188569103658693e-01 -7.543124744155492445e-02 1.180920195553615409e-01 -2.097362695298127522e-01 -4.144922747029313181e-01 2.895568944741232498e-01 2.520671977468028624e-01 -4.089596516676147209e-01 -2.357688614575081110e-01 -1.040465489815830813e-01 8.583032576034584082e-02 2.558731825371189927e-01 3.716684582939455694e-01 -3.769907319421363923e-01 2.090447663259626110e-01 -4.034707186109106614e-01 -1.730024639994294788e-01 -3.166228290737588269e-01 4.586692915222445599e-02 2.864429042267273018e-01 3.179720410870730540e-01 3.932477352474311183e-01 2.670953222225857515e-01 3.883758067552769283e-02 -1.237894878456769904e-01 4.455756280366989786e-01 2.749501208547421305e-01 -1.214439389666866903e-01 4.448395562372891021e-01 5.572736039252886853e-01 1.238786886976397245e-01 5.258321775417306165e-01 -3.173961276700401624e-01 5.816409116835555976e-02 2.848278417698109632e-01 -3.634383184016443669e-01 -1.205976581762753935e-01 8.496767762493473430e-02 -2.918311387973023252e-01 -1.437057252398962759e-01 3.592510541571400928e-01 2.528344956221357798e-01 -2.413168044977807014e-01 -3.418496330590138355e-01 1.213052079415867374e-01 -2.519314066505256577e-01 2.712341411270329239e-01 -3.288689499731670129e-01 -3.051634291516366893e-01 4.223625791272987984e-01 8.765187149675268685e-02 1.866528701643898058e-01 -3.217626577763060131e-02 2.845673453308292800e-01 -2.049012104589229277e-01 2.843875009701686829e-01 2.126472121851543107e-01 3.156895418354394023e-01 3.630697643789438378e-01 3.778183814174168598e-01 3.117489485912833813e-01 2.798197516388023498e-01 3.191561389573313035e-01 5.720781462713970811e-01 6.479942358429108262e-02 -5.998334896068330951e-02 -4.180064609021686417e-01 4.018954276172009843e-01 -7.248860314620213241e-02 2.081443046595687907e-01 -1.841682109941344681e-01 -1.126023488826517621e-01 1.602793291806191289e-01 4.384912633447661245e-01 -5.209828096516525564e-01 4.108565581513486803e-02 1.310494702784341936e-01 3.733411408017993649e-01 4.002757773371282829e-02 6.603736736280324537e-02 -1.128415462762085014e-01 2.182002829002696598e-01 6.930260109931971231e-03 4.818725526065409936e-01 -7.238878725322581142e-02 -6.979656285851068565e-02 -6.823092859202813110e-02 5.573254564625995666e-01 5.081864926074207700e-01 -1.107217111848134011e-01 -1.839956544290792806e-01 6.262000324074993296e-01 5.588755196198854636e-01 4.331532084623584966e-01 7.277153432132808797e-02 -3.404483494152374390e-01 3.837068122485411958e-01 -2.710923053895467616e-01 -3.870761618606733956e-01 -5.104896711478654897e-02 1.440018168460902304e-01 -1.596472168930478386e-01 -3.828860857018158426e-02 2.037933505586756178e-01 -4.048593600986938323e-02 -1.061678478659069114e-01 6.405601600908580884e-02 -1.969386349145862414e-01 6.066740235518625068e-01 2.277923170553567897e-02 -1.455743764750230818e-01 4.344201578878369996e-01 3.017701795102813445e-01 3.978537529914769610e-01 2.872536750683407636e-01 1.547277773566635428e-01 -2.545175133360075802e-03 3.835420237635775442e-01 3.009728944749943125e-01 -2.881902648138424672e-01 9.942921876630395062e-02 -3.504956639877642721e-01 1.315349220504265504e-01 -1.617507029980820854e-01 -4.726408148441595958e-01 -3.007533980796820439e-01 2.726211476688187307e-01 -2.434739207261197858e-01 2.905900719435390300e-01 -2.648189168234945656e-01 2.741627331281208946e-01 2.588500005043497532e-01 1.294786308214792847e-01 1.516327430863018411e-01 4.097349071269145160e-01 4.142372990365711383e-01 -6.117960624229586836e-02 6.813159528513548224e-01 -7.691940199799850164e-02 -8.730817560841738767e-02 1.760798584464803862e-01 1.846083729320179279e-01 3.797210521984832887e-01 -1.518920869632937598e-01 -3.902902542770929351e-02 -1.295346231774726908e-01 -3.138605748361430470e-01 2.933618458003779961e-01 -4.529633829930447830e-01 4.657097035567515086e-01 4.045893606111796714e-01 -4.564472516742010266e-01 1.370238380630378061e-01 -3.336256111229278232e-01 3.769846310970407788e-01 2.591983973680315190e-01 1.170221366395186730e-01 2.691687465530069878e-01 2.843742445986642275e-01 -4.747038101826535073e-01 2.675706635355991625e-01 7.327239146314743455e-03 1.886017309626031591e-01 4.145285748759418576e-01 1.095344489052634852e-02 3.998000411433867973e-01 -1.305363496718381644e-01 -5.337711852250930367e-01 -1.192573064075484884e-01 -7.058022482336709924e-01 -6.802517821119997699e-01 -1.045570207465024437e-01 -5.662338741231932593e-01 -5.476304396276260311e-01 -3.072625129341744477e-01 -6.298771661670049538e-02 2.121903314046791056e-01 3.164671006455144209e-01 -4.967417053907262625e-01 2.372078822300831835e-01 3.219916579019773684e-01 2.804459729780328092e-01 1.173870963761749070e-01 2.515540357486440240e-02 -1.922361180238043588e-01 -4.944941588823476009e-01 -4.444985398585732383e-03 -5.663770177764987368e-01 3.527610107022821073e-01 3.742415598848065073e-01 2.000059555442655068e-01 2.481565240834820163e-01 2.048481512931347170e-01 -1.946118382134527369e-01 -3.224412828766750061e-01 -6.969923084072000563e-01 -8.225683975653891311e-01 -5.400554544364930543e-01 -7.159891638811148873e-01 -3.564361955001367765e-01 -4.633399499458497051e-01 -4.379035050633624943e-02 -5.495936759380364300e-01 -3.283558719729097741e-01 -5.943742504989061315e-01 1.313358431994997647e-02 1.661053114034539702e-01 -7.521859547701306714e-02 1.124294639553444636e-01 2.147623342138480634e-02 4.558157377982665071e-01 -1.930206061074195567e-01 1.683677821952522247e-01 -2.835132742132499550e-01 3.674927292495954179e-01 9.759547816323157002e-03 -4.837767175847021602e-03 6.436487141052772698e-02 -3.326722900447518505e-01 1.275969675865373798e-01 1.395569770169219782e-03 -1.639050777501550871e-02 -1.778941970532922912e-01 -3.805949582313345458e-01 4.333239891086312218e-02 -2.461253080716195030e-01 -1.684579528883974331e-01 -4.814060253243755416e-01 -5.670758170674383702e-01 -5.276113289946074980e-01 -3.675844873408020685e-01 -3.508492932417022758e-01 -1.827743719886605958e-02 -4.224004631119157582e-02 4.610012716126375421e-01 1.567208793329002633e-02 -1.548164751560241262e-02 2.957278034773053732e-01 -2.561683196156984699e-01 -3.840894742549197938e-01 -4.964727068385133002e-01 1.342103936297306122e-01 -6.719911731428525326e-02 -2.445163757813537120e-01 -4.906588413905886847e-01 1.787302532599762406e-01 -1.265123845957433733e-02 1.472736127039366849e-01 -8.502526711406967197e-02 -6.679379415173317680e-01 1.250470166846129605e-01 -2.291371680563285274e-01 -4.879382360015616094e-01 -6.970019716998394899e-02 1.424940139922981630e-01 -2.292355324575469366e-01 3.650329492966486542e-03 -2.951838985360241696e-01 -5.671053012023120898e-02 -1.460779437055833019e-01 6.267348015864841748e-02 3.991551925999100026e-01 -3.480977211317844433e-01 -4.481516062228166342e-01 -1.270065033636255114e-01 -3.509570447475375277e-01 4.708863478768682276e-01 4.095699705675236446e-01 4.173355191308381062e-01 -2.679604077780724514e-01 1.285638709165844440e-01 3.781020122809313211e-01 7.095587862642913080e-02 -1.466973131365308936e-01 -1.598913573469591121e-01 9.368667145570554189e-02 2.927134061788527752e-01 -6.808305337833903126e-02 -3.696149927394185020e-01 -2.720070762863280867e-01 -3.862354667628993821e-01 -4.135958974097766472e-01 9.699745180927527022e-02 -2.841525706819021391e-01 -3.082871705462214007e-01 -6.338110458559899352e-02 1.911383158114357272e-01 -5.681551858467643462e-02 -1.577501674384008956e-02 -4.003587361553657964e-02 -4.449645865561219216e-02 -1.011711485042843944e-01 4.641168551711496448e-01 4.912703996233304116e-01 -4.302041056487562742e-01 3.905808021622067527e-01 3.310207286221603651e-01 -3.009670170328532235e-01 5.362227704509648918e-01 1.899174486697394471e-01 -2.176535005444006285e-02 -3.081334656494347790e-01 7.395849685875911794e-02 -2.264858041684411627e-01 2.918896494026478328e-01 -2.479639486321595920e-01 -3.536354059465836031e-01 1.834483834880771824e-01 -1.531458375219071910e-01 4.512186783854833794e-02 -5.332384257922394566e-01 -1.383603325024152231e-01 -2.564523474074346110e-01 1.239381158688172418e-01 -1.471774674901663860e-01 -4.141771663522543778e-01 3.128355449265258215e-01 3.149046854859507798e-03 3.956278835056920018e-02 3.509976086616563018e-01 1.797470583724130044e-01 3.069235479362891761e-01 -4.551681302494405834e-01 1.453027761568972953e-01 -5.783604686204084355e-02 -4.095891625369187800e-02 4.574551309751958006e-01 3.514445462633817852e-01 -1.644123155197466934e-01 1.242626587764021351e-01 -3.022058532020250876e-01 -6.821598517878064115e-03 3.956246183682434192e-01 -1.055713271520837410e-01 2.933582720297825408e-01 -3.394477059203079294e-01 5.120962181006327024e-02 -4.079989713079475999e-01 8.965906897578627965e-02 -2.230351348683765889e-01 -7.866648434981840521e-02 -1.277197901610744452e-02 -9.214184583370838011e-02 2.680865235613738573e-01 -4.612717879452737230e-02 2.620623987048582570e-01 4.167259539769802568e-01 -1.843165508373654365e-02 8.624185317625614189e-02 1.130549242286584821e-01 -2.484807029939381240e-01 -1.297863118363734233e-02 -1.844325076635566496e-01 -2.899965025844743888e-02 -3.843980947339510901e-01 -2.446144373481434486e-01 -7.517485970904821957e-02 2.654748287425522935e-01 -6.096582961378673726e-01 -3.806875755362949809e-02 -1.228046825279347359e-01 1.530802240849051810e-01 1.788702523675430797e-03 -1.779131556996785268e-01 -2.704033195625430430e-01 -1.079628226463408003e-01 -1.151897566806017598e-01 -7.452758964011982346e-02 5.409950604405943109e-01 3.069338846880396710e-01 -8.657299565726299384e-02 2.127976940254565352e-01 1.839420549258611315e-01 -2.358225356938670469e-01 1.736968988305207613e-03 -4.667492535683001043e-01 -2.668268918779851950e-01 4.860313076452945635e-01 -2.802686968920372057e-01 -1.072201365546778321e-02 1.119417660195641887e-02 5.065586399393156442e-02 -4.542461269755474484e-01 2.585625757022929072e-01 1.296306393418861225e-01 -1.986539603232356233e-01 1.477613925487552583e-02 -1.366007661575195653e-01 -3.374705649998931967e-01 -4.135273475554082090e-01 -6.250719162970408416e-01 -2.129756275023116270e-03 -2.648355036608366908e-01 -1.578923920716761298e-01 8.883939298484435504e-03 9.646075254322571124e-02 -3.010516536756975836e-01 6.934499307358315667e-04 1.592120675956417708e-01 2.677430672478648410e-01 -8.667791349213017915e-02 5.666739073277776706e-01 -2.839176967289193110e-01 1.574876070175466602e-01 -3.101142212630565026e-02 8.977265971757253382e-02 -2.203327172877749540e-01 4.568975031771319723e-02 2.542058267309040276e-01 3.277138620983260225e-02 -3.642831946001698351e-02 -3.371383104395858643e-01 -4.843462890277281940e-01 -9.736606614229983969e-02 -5.049964407799975574e-02 -3.306906665979162940e-01 -5.548445792954145306e-01 -5.927460618178402585e-02 -2.797730866302651498e-02 -3.147814961666917793e-02 -2.276854853868826301e-01 -1.816419414673242916e-01 -1.015884959176227981e-01 4.740555110006923756e-01 -1.416853244195233341e-01 1.701200912740699622e-02 -9.753349750656442607e-02 2.117594862099272668e-01 -1.960380264621524871e-01 3.846194085947499675e-01 -3.981091621663538360e-01 2.502713246342165299e-01 3.409059046802862536e-01 4.934461796703638603e-01 -1.662280727901519484e-01 -3.417917494570415493e-01 2.958518167198353477e-01 7.489321481937467884e-02 5.343890140707143604e-02 4.603881865070211417e-03 2.395926730560873075e-01 1.858072825400784722e-01 -3.600594675074464401e-01 -4.474917833904660802e-01 2.413875272477685741e-01 7.595575955766314946e-02 -6.498492704375146145e-01 -5.596838152061377469e-01 3.559939026251450755e-01 2.681129005602772009e-01 9.103687281897114569e-02 -6.596318029458188292e-02 -1.456970719218871890e-01 1.866592887022258396e-01 -1.173357595579353069e-01 -3.203058886037992159e-01 -6.916560873440164015e-02 -2.752248845655174206e-02 4.189703736723613403e-01 -4.101213461926663806e-01 -2.224511734637712179e-01 -3.227564900061994368e-01 -2.882723308699566278e-01 -4.071504214215314610e-01 -1.093182676549110249e-01 -2.084874662610446960e-01 -1.011640462672689367e-01 -1.708170067605874198e-01 -5.124592016549180812e-02 -3.564498826045202073e-01 3.284426054342689527e-01 -3.818950908110215758e-01 -2.387313528291054414e-03 -4.012194112349689590e-01 -5.634647731698311235e-02 -1.646006005096828928e-01 -9.278902821504528275e-02 9.878060564297214130e-02 2.971054564959457397e-02 1.699133500384359396e-01 2.533897673239295933e-01 2.594729402586034572e-01 -2.858450945428894219e-01 3.703859028683806898e-01 -2.278361132134092970e-01 3.320383723021144706e-02 -7.274894909589341152e-02 -9.657100582469604899e-02 1.862872920307129532e-01 -2.759306499068699403e-01 2.421486169530541188e-01 -4.018657455804289791e-01 3.616682169527384860e-01 4.112384355531545910e-01 -3.370141736004479971e-01 3.880892973748071295e-01 1.165767411605002357e-01 3.159499237357126789e-01 5.566862748158655227e-01 2.878792873325370927e-01 -6.739654238179828595e-03 4.857171688177202018e-01 -2.178717506345450861e-01 3.710724421982908305e-01 -3.875546122721142822e-02 2.846541329817083299e-01 2.621984238092237018e-01 -4.511937635044761807e-02 3.145397115388192666e-01 3.970094111398628778e-01 3.545373925138970428e-01 5.798630022181588961e-01 -7.939886783119111391e-02 4.293873163507615498e-01 1.805377537141715505e-01 -4.979061896085154038e-01 -1.051309589505891734e-01 -3.450766212458462601e-01 -8.809336986907814748e-02 4.784938370785623563e-01 4.487161200541887607e-01 -1.928242427537044112e-03 3.711615835175736677e-01 -3.992410230973854057e-01 -2.573725778682796339e-02 2.460247044376496217e-01 -3.179812613475241911e-01 -3.179677225441717159e-01 -2.589242478245869575e-02 1.803998239149239013e-01 2.074983350999898835e-01 2.787807691868224858e-01 1.345048047866307869e-02 4.146193422449281352e-01 -8.733018826162269876e-02 1.218884992919473526e-01 -2.311813713880859766e-01 3.224515506347454541e-01 -3.216791734197859132e-01 2.866343389053297441e-01 1.548626213338698265e-01 3.360616940957784071e-01 -2.132306541047029602e-01 2.483149530562945573e-01 -2.203214964250763963e-01 4.454374616540499598e-01 -2.129437279682983020e-01 4.040040325087689288e-01 -7.697071873740736481e-02 2.989439872756025074e-01 3.728863748960267732e-01 1.190501768930372906e-01 2.033848085662303962e-01 -6.384608773561277484e-02 3.155723922425209271e-01 3.386774700513050518e-01 6.234901731955037885e-02 -2.500791451764306506e-01 1.846711212385950679e-02 2.931713163611968653e-01 -9.882286311023785741e-02 -2.639988252763868504e-01 2.471114233852465258e-01 3.081927493148867159e-01 2.370488897696110819e-01 2.864046074151346127e-02 3.810500480618040919e-01 -4.628291787738893215e-02 -2.802994710317919247e-01 3.402497332814166109e-01 -4.604103869757660839e-01 -1.458760158657447237e-01 -2.623337059991929232e-01 -3.606890809553583432e-01 -3.297276540340812190e-01 -4.289629360918212897e-01 3.452414480891043969e-01 -3.760843945389407139e-01 -1.111473733420619558e-01 2.994174839532038335e-01 -3.215488877797298417e-01 4.805418728890980401e-02 2.916736302112979962e-01 4.696240639628422586e-02 -5.137516380807261029e-01 5.510397381576191966e-01 3.698370524931783865e-01 -5.100239192235030139e-02 2.839651407690592030e-02 -2.937169930626787329e-01 4.947319118618447309e-01 3.574493287001870301e-01 -2.646539398266978815e-01 4.155309948282294163e-01 1.701573852731639858e-01 -4.429265913299140212e-01 -1.632442698030096839e-01 -2.391247270526316859e-01 4.195582376067630292e-01 4.736950106536795269e-01 -3.519284847650587800e-01 -2.952013942377477163e-01 -2.877655761325855766e-01 -6.031186896832371053e-02 -1.209819289642214968e-01 1.541362668311068440e-01 2.779202704472537033e-01 -3.941135560301493590e-01 -1.908223198822489586e-01 1.317356062607932254e-01 1.633719591218165124e-01 2.633508281657109817e-01 3.718077914772916492e-01 4.162378508248436582e-01 3.840753418735381314e-02 5.075407974385143239e-01 1.590474110938598917e-01 1.687876227010228769e-01 -3.773426834074739000e-01 -2.329074945888461312e-01 -4.823698158296194083e-02 4.737136773665296396e-01 -8.878710922456078958e-02 -4.663171973526413217e-01 -1.125069817631139391e-01 2.914065965240333345e-01 -1.295132474166682257e-01 -4.922380759845914056e-01 2.400448439007135670e-01 3.615340896027732231e-01 1.893550202514032721e-01 -4.611799918654742036e-01 -2.298912837759464756e-01 -6.122232449159146356e-02 2.164558423800866729e-02 -2.814114870221674780e-02 -4.744695874258960666e-01 -4.631022512851365458e-01 -2.298680068602903248e-01 -3.273249836731073059e-01 -1.091879671748497704e-01 -4.541298575866073994e-01 2.502935171461186936e-01 -3.324990352663599880e-01 -1.647590185184716893e-01 3.632052739120320561e-01 -3.236317204048445584e-01 7.530179884697005277e-02 1.999125529548577140e-01 3.662053792105530725e-01 3.491086259249323587e-01 -1.635939717267670401e-01 2.330188630567805175e-01 2.181505661341973656e-01 3.630471027613482171e-01 6.233491038945870866e-02 -2.420003593677046982e-01 2.226516910054421317e-02 2.383386886269609484e-01 -1.295457170546618908e-01 -4.518677075013760591e-01 -3.761794962237020590e-01 4.586289748780267850e-01 3.689528878376978627e-01 3.514629314370931734e-01 8.509077553574661678e-04 4.917727883934885358e-01 7.806955622440962805e-02 1.015781776418428484e-01 4.482368045586982985e-01 2.964388047710633800e-02 3.307906882015785310e-01 -1.797120269504967893e-01 7.835967572141690207e-02 1.198374226915186955e-02 -3.362636932952081104e-01 -4.430035640163664662e-02 2.624974226416580403e-01 -3.420470648170130246e-01 1.901491387603831129e-01 -4.816210026938310684e-01 3.415604560288590941e-01 -1.754521147609248155e-01 -2.012403907757123189e-01 2.931861450002670733e-01
-1.520986976002430824e-01 -1.370022054462683991e-01 -3.933795107869804131e-01 -2.722154767319043822e-01 -4.176819678139225278e-01 8.614445000440285050e-02 2.441198162905824365e-01 2.139801664866559650e-01 3.446990098286651927e-01 3.910035767581389043e-01 -7.650617789773273003e-03 2.733121656438580738e-01 2.338422402314165871e-01 -3.772522241113548391e-01 4.697180787585785722e-01 3.466121531712096915e-01 3.044484728708292121e-01 4.570728851459503472e-01 -2.787686721299175163e-01 3.423514848606041827e-01 5.269357420353049104e-02 -1.480984182334807997e-01 -1.161911259981716071e-01 1.606133611744415823e-01 -4.643727192154690764e-01 4.593780936178750718e-01 2.019689193154965423e-01 3.539483160294483177e-01 4.421310337484009034e-01 3.577598710428525619e-01 4.353238897493590942e-01 -7.777868906946672212e-02 1.633637910384041492e-01 6.069104433357271761e-02 7.967442643393497781e-02 -1.974634823604060757e-02 2.591418196850830413e-01 -2.843700668208101745e-01 -4.219213386474864880e-01 -1.718965275873821086e-01 8.292927155615205034e-03 5.687819311171889158e-02 -4.906810725871866424e-02 -1.830314093328751571e-02 -3.584335786191024109e-01 3.984548253654451866e-01 -2.269251759611429220e-01 -3.632891879990950423e-01 -4.870670088423593724e-01 5.888414469212086000e-02 4.382849836480795513e-01 -4.491858007270183584e-01 -1.250219436457196132e-01 1.604632214872081519e-02 -1.458367203829892267e-01 -2.299666183396722463e-01 2.337534855768160780e-01 -1.372545436805002739e-01 -2.734166864053481638e-01 -2.740440580345001598e-01 2.157037632220362988e-01 -4.583658258299433963e-01 2.643081918151818921e-01 3.751645185426570328e-01 -3.294884657223548508e-01 2.728003919371604358e-01 4.029289543558847719e-02 1.860716255449462453e-01 6.507608899917040335e-02 2.352542239414421588e-01 4.515995451638791791e-01 -5.357023941963236224e-02 1.555109325485904970e-01 -1.578271545662599806e-01 4.239033271743009035e-01 2.234966921700752840e-01 2.954624181655545190e-01 -1.311526711099998410e-01 4.087491964790155863e-01 4.669124675709860894e-01 -3.928433369914292039e-01 -4.550461694465481322e-01 2.592223159899587070e-02 -3.877922674904014100e-01 -4.487840570389546313e-01 -2.822917603103053397e-01 2.539180880047813282e-01 -8.767508150640934694e-02 1.539396883581986009e-01 2.874505121354243853e-01 -3.446972704448766356e-01 -2.144461101075423870e-01 -5.892109164198142124e-02 -2.339849880866640142e-01 -5.451499322385218449e-02 7.053058430853188787e-02 1.482821833565406144e-01 4.645257231589034475e-01 4.477891992064410021e-01 2.109908403193395954e-01 -6.674636810285139443e-02 2.242886401932414342e-01 2.840947890229319692e-02 3.664005806902163043e-01 1.985525235034343305e-01 5.020787635507231034e-02 -3.970523088032315018e-01 -2.219838354523400170e-01 3.372110039245845292e-01 2.069448824805399934e-01 6.112978957994111978e-02 -6.422694632512160329e-02 -3.797215259827639855e-01 -3.769441636150434524e-03 3.163354682277280672e-01 -3.397009600634530169e-01 4.397620588590726576e-01 -3.668854893151638485e-01 4.425765131841518096e-01 -3.181093528845783114e-01 2.477551732248350902e-01 -2.871341980269808691e-01 5.274945186379684792e-01 -2.551204342103819966e-01 4.215483708458716561e-01 1.691906227482849467e-01 2.934759869501641916e-01 -1.058175460834643311e-01 4.669220577111012765e-02 1.879212364337169983e-01 1.847376451439752820e-01 1.966773159201155308e-01 -9.205637826482787611e-02 -3.836663785837775009e-01 1.878594410586597041e-01 4.381003702950504453e-01 -4.873741590111659860e-01 3.685577859649863952e-01 -4.363258731936317525e-01 -4.749691725083566851e-01 -1.338506378947558195e-01 -7.918512511264452769e-02 -3.388892053043405794e-01 3.229415901590775018e-02 -3.027230210220310802e-01 -3.177175374837006294e-01 1.825954281262443246e-01 7.363775841710233118e-03 -7.080216345650400256e-02 3.228550680111594851e-01 7.427549885425600851e-02 -2.140213134601031963e-01 -2.736519551607005662e-01 -3.389665112404662284e-01 1.480649050926196864e-01 -3.955279714196578700e-02 -2.493322268679463993e-01 1.897531468474425165e-01 -4.153958218545618641e-01 9.955563376575926604e-02 -1.772263748845009368e-01 1.162577860008861402e-01 4.079971915694878826e-01 -3.642402642815860403e-02 -4.393678760341825917e-01 -7.215284824941718689e-02 -4.653557642181029297e-01 -2.091504700733333166e-01 1.595594948767651289e-01 -2.133024682732274357e-01 -4.704300329687763904e-01 -4.309901443858999981e-01 -2.270938540581052822e-01 5.801237192689662203e-01 1.594373459289014361e-01 -4.057183876082877672e-01 2.689765787556560109e-03 -8.790027606008625830e-03 -3.466564400119084843e-01 1.270152004350882935e-01 3.307879378628603706e-01 2.770903989087493413e-02 1.268248991443892415e-01 1.972632371820088049e-01 4.050138718165747220e-01 -1.023050794786448808e-01 2.684093906282400965e-01 -2.497477162166261699e-01 -1.108824805966626553e-01 -7.846074822326878917e-02 -3.547667542872319779e-01 -2.215407335849360893e-01 -4.180125934022002054e-01 4.030414893885627681e-01 -1.417840115486164454e-01 2.808605663798941499e-01 -1.677260530703237329e-01 2.626258666192683999e-01 3.452839032969310940e-01 2.827767595426596350e-02 1.740332927326971313e-01 -2.119535448069306549e-01 4.120305396377724194e-01 -3.099222556157910091e-01 1.422901413755252586e-01 1.634887524657877289e-01 -2.624259123790450565e-01 -2.681043978858587695e-01 2.656039055512797731e-01 -1.704946366842023386e-01 6.733708997017495701e-01 -9.821433900039132706e-03 2.252642419540357155e-01 5.050799784786456220e-02 -4.231053059644977049e-02 1.651906840083468553e-01 2.523904346523525577e-01 -1.963434981625482856e-01 9.939690103778915306e-03 1.403134847139143049e-01 -4.107226124257821187e-01 3.979804435556711373e-01 -1.909039402872358404e-01 4.460144081564730856e-01 3.199157099542974669e-01 -5.820666234980544085e-02 4.662799559939365679e-01 4.633694613734572476e-01 3.475014590686231197e-01 -5.848110210960461020e-02 -2.345915253832387137e-01 1.201035519093661130e-01 1.675486406508393256e-01 -4.076580001611921911e-01 2.205367987103987737e-01 1.553841271426680548e-01 -1.833406031951086146e-01 9.515096519721119583e-02 6.094194409251468478e-03 3.736849906354174911e-01 -2.150576940053369190e-01 4.458227364868033171e-01 -2.353613762749696137e-01 1.980385406677766247e-01 -3.553966584589771105e-02 1.622164851833065025e-01 3.629106781983837404e-01 -1.505082113493266260e-01 -1.691885615449255920e-01 -1.879704401489220023e-01 1.573404183737933948e-01 1.222036629493461896e-01 -2.287679344899966882e-01 -7.381234708914292952e-02 -3.141841850191646746e-01 -2.735221534934603183e-01 -8.449762302617488952e-02 2.808317068049824838e-01 2.530422995847562140e-01 -2.440424835023149996e-01 1.834067711170603576e-01 -3.662295426433035961e-01 1.455896719899308842e-02 -5.214780730897692340e-01 1.305038987468910561e-01 -1.209264328143976885e-01 1.487359014951794844e-01 3.030452889257675975e-01 -9.308330912812574909e-02 2.558592537354139607e-01 -6.048422332998477230e-02 -4.174332947555670636e-01 2.335684064653612835e-01 -2.446887984456700138e-01 1.705109253658563251e-01 -2.066936536837964689e-01 3.479739872457759398e-01 2.884336306609077694e-01 -4.702878395053003424e-01 -5.445428759976541494e-02 -1.903536255507326871e-02 4.715386435556622180e-01 -4.628989902604673246e-01 -4.477107103497466878e-01 -4.315046849137881835e-01 7.959114850760509730e-02 -4.358040588979381624e-01 -3.634594954024513713e-01 -2.806245795836818102e-01 -4.169737349724125242e-01 -7.490893207946248966e-02 -1.007273379952393494e-01 -2.693176224157105003e-01 3.511830870047079056e-01 -2.024388290668386464e-02 2.855410867107509021e-01 -1.436133923183799954e-01 -3.351081004647428752e-01 -2.465541276756967604e-01 1.693346276690314567e-01 8.040992355697272609e-02 -5.626867196798252847e-03 -3.897785806406731113e-01 1.870391666218629567e-01 -5.845134678819507296e-02 2.535235281262342988e-01 -2.275256573851068206e-02 3.943234505921573430e-01 -1.074443489292221804e-01 -5.077769748612456224e-01 3.713322165672720554e-01 -4.634703610617761926e-01 -3.823245754711307454e-01 1.011611616312304840e-01 1.054109319138796935e-01 3.351376535943329515e-01 -4.579477381743587983e-01 -4.102504943622483496e-02 -2.465221409704921318e-01 1.917684196837310950e-01 -2.062529808197058612e-01 4.910879261606069246e-01 1.028358163280583409e-01 2.376806401577893080e-01 3.986791132097277646e-01 2.770925943573460115e-01 -8.222314674183391070e-02 -2.945125196643739174e-01 -3.128642702419438537e-01 -6.701678663000538716e-01 -3.706216840420443748e-01 -7.503781696833056181e-01 -4.409473903734689726e-02 -4.226674543162419750e-01 2.016023664532283141e-02 9.552347576322570144e-02 7.533094883543389741e-02 1.172493397522490904e-01 -6.971735572048450014e-02 7.483551649697270380e-02 -4.643083055144149318e-01 1.579566169030412470e-01 -3.330772441221914182e-01 1.275977075937779759e-01 -4.488572733350984501e-01 2.674145242617856355e-01 -1.617575599819020757e-02 7.318275395132230188e-02 3.352646417065002771e-01 3.586433673631409524e-01 4.713950733342061605e-01 2.113919080701203435e-01 -1.686188927284381842e-02 -1.818719065350161632e-02 8.745036107696654848e-02 -3.925008160413169800e-01 1.138760867957838568e-01 -6.922930975166337042e-01 -1.198589283705896319e-01 -2.949876228849962478e-01 1.575759452172584285e-02 -4.552982891569775092e-01 -4.284335838278381381e-01 2.822694050368868557e-01 4.602688488027029678e-01 -7.408044267178952487e-03 -1.665136971926312603e-01 1.392323471181274308e-01 1.397886532633520196e-01 1.317278596737062324e-01 -2.513951184033479808e-02 -1.663168807189843446e-01 -8.542445557649780419e-02 4.477449701858784992e-01 -2.518201541479150873e-01 2.932741526521906450e-01 1.887057115572237653e-01 5.362765298805310943e-01 3.557729687170962940e-01 1.371463936131503691e-01 6.896106057606492257e-02 2.262126343480659885e-01 3.113096178224183941e-01 1.591803930006422951e-01 1.304710057707347826e-01 1.477015339510931446e-01 -2.851643586179128942e-01 2.117658323126851150e-01 -2.576298519029148193e-01 2.957723342186160953e-01 8.203107559323694412e-03 4.286556332925920976e-01 4.761928746893064890e-01 4.912681995660218015e-01 3.559834335647996673e-01 3.735301537356389701e-01 3.011293458274016954e-01 -1.757061636556550011e-01 6.723700245796983277e-02 8.569629102390094455e-02 -2.687544037841826383e-01 -1.724326999460973620e-01 1.357011733685553057e-01 2.723361678738941971e-01 1.425755924799215479e-01 4.110021821789356378e-01 3.935359636676018513e-01 1.529875584148760459e-01 3.071790722367424009e-01 1.038764099863962592e-01 9.398744666378745782e-02 1.024497183868345179e-01 -1.481768052184186946e-01 -3.188547804127150331e-01 2.322713956962673132e-01 7.720147313592257143e-02 1.811966690691223514e-01 3.070492338893823225e-01 1.840459944758995880e-01 1.055440653096703929e-01 2.966870702105006696e-01 1.911554575156677593e-01 -4.907733589251334627e-01 1.081884154241051221e-01 -4.150221650468348678e-01 2.033092323307805760e-01 -3.399933629317608563e-01 -5.171564829898539495e-01 6.790201255425293292e-02 -3.142725669668357535e-01 2.020770686282643072e-02 -8.520852190045123675e-02 4.241509532275016259e-01 2.490017894092472206e-01 3.438023477973397579e-01 9.788006966682243071e-02 -8.171413015742930164e-02 -1.165653195510981122e-01 -2.161208491883265526e-01 -3.551469434088879717e-01 1.308004440595784967e-01 -3.525405633468325362e-01 4.358930516849467973e-01 -2.038614556614499751e-01 1.704748239705577428e-01 1.182298902774690970e-02 -3.502901751197655122e-01 -1.386902122314492281e-01 -2.493267437388888563e-01 2.216729155628573977e-01 -1.763807592591830065e-01 -4.446446461917946680e-02 -4.355773950534634342e-01 -2.261883664580302267e-01 -4.378021956372982193e-01 -2.274874007547227420e-02 -4.858518056595190759e-01 -4.487247737345227416e-01 -5.661744075473342797e-01 -3.618764377320621839e-01 -9.794622063586350125e-02 1.802149826484906736e-01 -2.128318905923102244e-01 -7.029692295398431989e-02 -1.718650306778862769e-01 -2.612322455895937368e-01 1.861306844305543953e-02 5.086054714214525152e-01 1.984505057472194245e-01 4.668472289546410914e-01 1.685122599404660637e-01 -3.785593530297459708e-02 5.254314819166022027e-02 -3.528401493403886952e-02 3.443484735334131353e-01 -2.212332635931588409e-01 -2.379220169000074714e-01 -4.955075423352321012e-02 3.441105343155460017e-01 -1.704084743533974544e-01 -1.057191405972433829e-01 -1.108236396674465024e-01 -2.046721528987032190e-01 -8.159982820243603108e-01 -5.660689635358234773e-01 -5.303742582208862411e-01 -5.858856272088929229e-01 -9.076044757827339549e-01 -1.079532823417095777e+00 -1.321618586048659526e-02 -4.541778860320351829e-01 -5.200475112139166800e-01 -2.751680686034645995e-01 1.896050137526216206e-01 -3.016702763170285295e-01 -1.596791628920836148e-01 -3.576864968945165923e-01 4.330785453099109117e-01 -1.848107286198032995e-01 -2.480643215719642303e-01 2.510837702939879706e-02 -1.348420295245484901e-01 -1.910137421725768836e-01 1.906903722008266300e-01 -6.132116197056582119e-02 -2.545623214563515480e-01 2.953423712642247109e-02 2.290240783958548410e-01 4.138544693492257065e-01 1.347051746353275514e-01 -4.432372588767436450e-01 2.535461002086642282e-02 -2.224991686370311472e-01 -2.491266129692882025e-01 -9.364635735543170858e-01 -6.594070819951427520e-01 -6.116635198676256824e-01 -1.613977017980330053e-01 -1.635833559988092156e-01 -4.338705479171689472e-01 4.110339755267339856e-01 -1.335961966623041286e-01 8.977350887298175819e-02 3.433499725991230322e-01 1.912569595836492997e-01 2.667388565728040506e-01 2.442171386004882705e-01 -4.416986202598687239e-01 -5.746908028841019034e-02 3.127958019005391138e-02 1.235655380458730163e-01 -1.283606532714914872e-01 -3.752393671702713984e-01 -8.872532228555482514e-02 4.268130606296733909e-01 -2.137634541631650009e-01 1.141193076071433665e-01 2.730426753049499111e-01 3.251466451917185974e-01 1.455199320425502041e-01 -5.014937232905128939e-01 -4.919874375212990314e-01 -3.094023172259587062e-02 -3.699103935023402290e-01 -6.152250504799050557e-01 -5.824864728985728046e-01 2.261823648679791299e-01 3.630272921395615859e-01 -1.332612492128861792e-01 3.515625464180706095e-01 6.853913917348461449e-02 4.588581526205857686e-01 1.124042620959790073e-01 -1.004145742274748648e-01 -3.985106983710777484e-02 -2.030930577462982667e-01 -2.478494051163395717e-01 -1.973312660156622267e-01 2.365600857240568178e-01 -4.158946253323395764e-02 4.967569017067799964e-01 4.067502171030460412e-01 -3.294160375889173403e-02 4.228502246342320525e-01 -2.315347429492439213e-01 -1.452218442062584991e-01 -2.069109985931339227e-02 3.309620551387315035e-01 3.891634835918678093e-02 4.616956109229299332e-01 1.490215787400187009e-01 6.862140166779769068e-02 1.578929385166413443e-02 1.281554905508623110e-01 -1.041880699918353373e-02 2.316807554683871506e-01 -6.133434689947745572e-02 2.641547913284328364e-01 4.126077772195854143e-01 -3.186917484067086637e-01 1.519608726544428856e-01 2.936964266334975426e-01 -6.180060478026643267e-01 2.132374516272077247e-01 -5.744863209283256333e-01 -4.895487059739785374e-01 1.261541784190528537e-01 2.921586804836417972e-01 -1.999559646942884183e-01 -3.373358156493327376e-01 4.781355087420344763e-01 4.823365271616548156e-01 1.721822224917394228e-01 2.843983955305849909e-01 -1.017874292575464551e-01 -2.083793587284444304e-01 -1.293556646530261978e-01 -2.245709559891359008e-01 -2.428903079416981636e-02 6.991774656139837507e-02 2.711054432587268678e-02 4.637054541253052276e-02 -1.618536882614105554e-01 1.818739884827561826e-01 7.805326066948752028e-02 1.455824962091617492e-01 -3.792606621100939601e-01 -4.163535854774615824e-02 3.339421263223185665e-02 -6.955249034508946201e-03 -4.124853835449048822e-01 1.895917161637327569e-02 4.959120271613326469e-02 4.460885465647858039e-01 2.436864723542486177e-01 -3.229986500617022527e-01 4.116977653314411456e-01 -1.033272558370480487e-01 5.070073661344559612e-01 -1.209209224595286652e-01 3.824408839146066219e-01 -1.385857227568106365e-01 1.643155222603907006e-01 2.071708541557704675e-01 -1.558752782788734303e-01 4.877092783829214406e-01 -6.254570799429385632e-03 4.843065916883624450e-02 -4.023795414127047665e-01 -1.558859817929315189e-02 -1.770837045303352841e-01 -4.635272310652563399e-01 2.781843861283969099e-01 4.074537647880652202e-01 4.280907797271251702e-01 -2.337150623223679391e-01 -5.190358072887754082e-01 2.571252962226430183e-01 -5.027649673324074975e-01 3.568641792663670431e-01 3.333644754408742611e-02 -4.630775563976845532e-01 -1.356115219103603553e-01 -4.765863746338545592e-01 -3.861740542011604660e-02 3.331705278257762748e-01 -7.672392181147523471e-02 -2.179602357610724989e-02 -2.675923612654579342e-01 -1.272656382920864804e-01 4.365826461559166316e-01 -5.756666340815233540e-02 -1.368748522548883240e-01 2.214564223150635586e-02 1.835533245931636748e-01 -1.429550318297758693e-01 3.100573439534573539e-01 -2.108830564292644982e-01 2.314969507850458685e-01 -3.885426469884201706e-01 -2.915576342613310223e-01 -1.172755925165187979e-01 4.532193101649517608e-01 -2.375620237921630684e-01 9.066388505799413688e-02 -6.496296563552740599e-02 -1.738008895263265519e-01 -3.571410207810897242e-01 -4.482649131803090881e-01 -3.147573525222479573e-01 2.605417760545339356e-01 -7.091223618196784706e-02 2.839091611868624909e-01 3.023752012213953844e-02 1.079666916918963215e-01 4.395187716889718127e-02 4.867457618274728670e-01 5.259714822201922990e-01 3.295930540669176900e-01 1.541056117937491254e-01 2.701620232507969538e-02 2.184577556017231748e-01 4.603931662719134010e-01 -1.745624170602299852e-01 1.772420318335904132e-01 -3.414252901954509256e-01 3.682694667656723486e-01 2.904128289827594966e-01 -3.691955868843115884e-01 -1.435657970852203535e-01 -3.503071230415374937e-02 -1.805534588375205529e-01 2.313850683108258088e-01 -2.463542843360542745e-01 -4.210391460794677965e-01 -1.439861081604632276e-01 -6.900036429798583892e-02 4.156999606576089468e-01 -2.899969337616907158e-02 1.190738929309770322e-01 5.873601607302147976e-02 -3.043203191116797823e-01 3.010513765977418932e-01 -4.950872318359373914e-01 1.212359003995982093e-01 8.413686936126643645e-02 -9.224108337667109858e-02 1.438316960262528421e-01 1.808371945061704456e-01 6.006808261698530771e-01 5.398512782818803979e-01 5.537767607870031084e-01 7.261998431735999793e-02 -1.341610587442038649e-01 -2.045333722908132257e-01 3.970038226317841312e-01 -3.901701723115547082e-01 -4.648000539453642221e-02 3.249791351049749477e-01 2.154456146434673702e-01 6.075325191562896271e-02 1.709206841005947997e-01 2.801622474922292882e-01 -3.914033296212923174e-01 1.886595373859248637e-01 2.311399462272142880e-01 -2.966515083936656708e-02 -2.950508629246204606e-01 2.216833749638658091e-04 4.559580587305911425e-01 2.398085235266680382e-01 -4.190174866016496136e-01 2.942251363971887246e-01 1.589850649606262822e-01 4.511122476423283234e-01 -2.935462955951969044e-01 3.465128787144104439e-01 -1.122823671404739182e-01 -1.870872593527569405e-01 2.195474705445019936e-01 -4.387900562939552884e-01 5.132679895251331947e-01 -2.748102733102267825e-01 5.719856690069372897e-03 1.806533314933694290e-01 -8.261191877570804587e-02 -3.171656129799245438e-02 3.939717132117583759e-02 1.336043141472575690e-01 3.519362944486985612e-01 -2.639721867879288308e-01 -4.125738896003373624e-01 -4.823269885524265610e-01 -1.872970688180328469e-01 -6.411670099261368438e-02 -4.736093243072325709e-02 2.761602969765439841e-01 -1.598569879609174071e-01 2.810566155547067346e-02 -2.658103693936150203e-01 1.797931605882805428e-01 -2.746017282034029366e-02 -2.424355656986511010e-01 -4.682731590605069272e-01 4.825555548724455024e-01 -4.904783579476440503e-01 -4.519396639073007815e-01 -5.383073254830336718e-02 2.980038175070198747e-01 -3.594863520495412690e-01 2.623076113151048827e-01 8.343359986703205444e-02 -2.915541375870775789e-02 1.162886345728806059e-01 -4.631193160157052735e-01 1.064344204738691818e-01 4.935365161856658522e-01 1.166816515451343378e-01 4.681885663907667805e-01 -2.042726964779235932e-01 1.672496078229728234e-01 -3.945148179141919620e-01 3.049590939095827569e-01 2.180311891877714237e-01
-4.749365450013894874e-01 -3.372738926112377467e-01 3.633673021193646324e-01 -1.128381306081769342e-01 -2.714231316654759363e-01 -4.010382854691573185e-01 -9.200337623384780006e-02 3.581979130522803256e-01 4.654175469359487227e-01 3.782838241559408621e-01 1.309882542704052799e-01 -3.481013476742211843e-01 -4.982185418303131108e-02 2.784910714315202984e-01 4.309579135964254348e-01 -2.715041962362101380e-01 -2.477855681807291655e-01 -2.877697541552542981e-01 -4.831039174831808225e-02 -3.792614008544635817e-01 4.466482847249296784e-01 -4.796668170736313463e-01 -2.836811299967461064e-01 -2.575013112126522952e-02 -4.112708298131194651e-01 -1.970974023077592951e-01 -3.826379151564701653e-01 2.892013938648859694e-01 4.711460063643865270e-01 3.288327421086756353e-02 2.318802882764556816e-01 2.674503555520896247e-01 4.626744534932129005e-01 1.091686140361582732e-03 1.825510979479095519e-01 1.368536924305067681e-01 1.959637794733454230e-01 2.397678730458548957e-01 3.622825266504383634e-01 -4.101455841626037158e-01 3.509328199113372349e-01 -4.556353856513784689e-02 4.567749311779934485e-01 2.646104615414006100e-01 -6.168126721922338740e-02 4.629038057195850042e-01 4.553963870152746840e-01 -4.614464228735085660e-01 -4.503185258748991227e-01 -5.380525024022387443e-02 -1.196051029639919328e-01 -1.721233925933314257e-01 2.239879194687810493e-02 -3.209727443871854824e-01 1.474869693568982010e-01 1.711920312467100080e-01 2.163389032498134190e-01 8.106010676583530472e-02 2.812891370667189861e-01 2.146493436221994511e-01 -2.736677695008281619e-01 3.704715228504983915e-01 1.886574348874610618e-01 -3.952734344048492998e-01 -5.642256711009587672e-02 4.542519747059182711e-01 2.587238191999624570e-01 -4.365797748119797095e-02 -7.306182543439510013e-02 7.817597114417114412e-02 -4.212476918406999338e-01 2.023772216745527708e-01 -4.206890632760711957e-01 4.803758013242372393e-01 -3.748166746941160588e-01 -4.339288988103277012e-01 1.613508911834112547e-01 -3.814056401386394790e-01 -7.110135730220985828e-02 8.725908005683061242e-02 1.371202437148252296e-01 2.378961184535380857e-01 3.586377389783372838e-01 -2.155288643843795704e-01 3.914959093406091828e-01 1.875448854637191687e-01 1.163663927109285096e-01 -3.163703093171646996e-01 3.806017823546373746e-01 -1.767306497059501214e-01 -6.646855319365754799e-02 1.422468076428350103e-01 1.322825839888619182e-01 -4.962027778664045430e-01 -2.184725972645456260e-01 4.992136823372188559e-01 -3.008807797889487268e-01 4.523754437059204214e-01 -1.530259750949935008e-02 -3.832519813344065773e-01 -2.330250830043679722e-01 -1.754668150427010631e-01 -2.832495245170876808e-01 -3.284437093386395334e-01 3.239056126789287560e-01 -1.502201576323831944e-01 -1.065910372362457587e-01 -6.663187250756741342e-02 -3.513482448896699251e-01 3.696972791973521244e-01 8.799001674491424563e-02 3.913497415038836857e-01 -2.473689916936498978e-01 -3.532443743946277470e-01 -1.093504744671998097e-01 4.955601798080485620e-01 -3.402729285049874708e-01 7.256597097543597552e-02 -2.923245322481707320e-01 -3.954494666403344239e-01 3.873531557134201608e-01 -4.244514356033737279e-01 -4.386149383692812820e-01 6.400516023984932634e-02 -4.027531846044003494e-01 1.443640042030192548e-02 3.033211903820226540e-01 -4.227884217652280729e-01 -3.062548491076736920e-02 2.317966942542479258e-01 -3.693494344646502392e-01 1.568687024626481269e-02 -3.398106724571354764e-01 -4.092086915763373800e-01 4.068565730236883837e-01 -1.824932169273317528e-01 2.797076997839172130e-02 -3.075502885842482659e-01 -3.024955668213123450e-01 -4.894313659528680693e-01 1.819364385119314198e-01 2.320840435079758457e-01 4.107443465566901208e-01 -1.218931518520632168e-01 3.076858463277570288e-01 -4.114605577992513918e-02 -3.042143253390842683e-01 1.103051093295660950e-01 1.110309986231518692e-01 4.938705356907447525e-02 -5.039085519830943660e-01 2.055057810576272348e-01 5.319843532535887404e-02 -1.304343392534448587e-01 -1.797492138058433969e-02 -4.795845205261926036e-01 -4.495556295380359058e-01 4.520951038912273123e-01 -2.574980585872991279e-01 -2.707956991967423385e-02 -2.107934538601738961e-01 4.481677453066372219e-01 -2.213631092597516947e-01 -3.581602061840979956e-01 -2.582733266377443271e-02 3.889135044952504172e-01 -1.107585985985609645e-01 4.202529099927113654e-01 4.992388458027030573e-02 3.679782347885678373e-01 -5.637443897904943768e-02 -1.260033275807421332e-02 -2.438346724984249425e-01 -2.923800459572378774e-01 -3.934195577041042502e-01 -3.790103864090553221e-01 -2.102606441508458601e-01 2.440020747992197592e-01 -2.560547940062943284e-01 -4.283065684683086682e-01 2.893173755087034005e-01 2.997872795942898572e-01 -2.813151488491172705e-02 -2.316778924102435300e-01 -1.128227526879592435e-01 -2.896252903584189964e-01 -3.462671761468968934e-01 -3.324920785682588531e-01 3.488584025076182371e-01 -2.035525670980709578e-01 -1.659233638886188911e-01 -9.099601762084991163e-03 -2.197916965083196172e-01 -1.727200104980709805e-02 -2.071372132442614589e-01 4.215494237793388499e-01 4.706320565257053889e-01 1.979104649255951087e-01 -3.214930822620061246e-01 -4.523193413710464572e-01 2.238971682113825301e-01 -9.746316184281310357e-02 4.281888764724031127e-01 -1.053261592821572688e-02 -5.394993355195238927e-01 3.189918561783048889e-01 -1.821549520382959031e-01 -1.789794646774928721e-01 4.132106024268469846e-01 -9.306659373991300888e-02 -1.570811364691464818e-01 4.256929332760055473e-01 -4.343312428983404083e-01 -4.463484346150267124e-01 -1.523158035756781159e-01 -4.592573032570170244e-01 -1.625541157324842945e-01 -3.283355261564716021e-01 2.943840336508209421e-01 -2.710950363433887317e-03 -3.267776144373544245e-01 2.451052379749019683e-01 -7.363592956790102062e-02 1.025700051580485939e-02 2.257530218608322370e-01 1.055416629733435252e-01 -3.900058038321168041e-01 -3.650036269048586440e-02 5.044006962020558538e-02 9.121215399057507056e-02 -1.860291961151424589e-01 2.147567116107831353e-01 2.100081370588025298e-01 -4.747957818884248303e-03 -5.301514427544476993e-01 -7.585891377692314912e-03 1.130821677283368326e-01 -4.355508399188080526e-01 1.437929890239860176e-01 -2.656972359057439004e-01 -4.266526783952882540e-01 -1.099152333857772584e-01 -2.885816184448475874e-01 -2.495682083589184086e-01 2.642742787859883036e-01 2.115532618839111034e-01 2.990524378865068722e-01 -2.369424416384077192e-01 8.397277556301587995e-03 3.929176043089563919e-01 -1.123987603135479935e-01 -1.343358791151638421e-01 -2.357740450400662990e-01 2.807170442490583562e-01 -3.568343285506886398e-01 -3.519755273636472892e-01 3.091342481461519798e-01 -4.642563792715727056e-01 -6.522717105073788657e-02 3.946031508359850726e-01 2.213314070175519954e-01 -4.549203259938622845e-01 -1.173111708673554854e-01 2.331990227958802980e-02 2.917781823258749907e-01 -1.050642258443997556e-01 3.134276380899255754e-01 1.893252752875780598e-01 3.590163194097644728e-01 -3.215222715165864664e-01 -1.949980932305758752e-01 2.467475627194870846e-01 -4.086543126222572098e-01 -2.379245736810289003e-01 4.215839389757856104e-01 -4.655200261753701940e-01 -4.639662221372674034e-01 4.039070439526867284e-01 -1.646181791151226093e-01 -3.630712595241785134e-01 -3.095455194452081393e-01 -3.283089878292944630e-01 -4.342538183865465862e-01 2.768031313774287905e-01 -1.828232620275175024e-01 -2.721956939763597316e-01 -3.582574778209861033e-01 -1.238231726115643638e-01 -3.122302275700867269e-01 -3.435176494971071970e-02 1.517685900304836105e-02 3.870730825238610229e-01 2.887091115975176092e-01 -3.002873792472658399e-01 -5.209637420289676690e-01 -7.056915903539807966e-02 2.282441849120896982e-01 -5.095132937843144250e-01 3.951300621931156387e-01 -4.168751631767921850e-01 -6.373037764871999911e-02 -1.930355326767027591e-02 -5.038246906765373456e-01 2.355995117475336298e-01 -1.107985277611971547e-01 1.483949837862150734e-01 1.217489006441373894e-02 4.977988688654986366e-02 1.960751220376821813e-01 3.675633176080330133e-01 2.439164362393036745e-01 4.388511092266807467e-01 -4.808470426123381825e-01 -3.669678137137215579e-01 1.531738216927177043e-01 -3.105737184336706397e-02 -2.305080471631945349e-01 -5.242622914755264985e-01 2.896409207118573192e-01 1.361423043990213633e-01 -4.141993614265984114e-01 -1.383875944314668371e-01 2.001456533262003512e-01 -2.302621414096205077e-01 -3.810713833005869855e-01 1.000727973024499451e-01 -1.141571449659082582e-01 4.269279867594018008e-01 6.626547289081380354e-02 3.155775960411370540e-01 -4.592652161286792101e-01 -3.316999658282498986e-01 -2.815552433375895780e-01 1.349547496154438753e-01 -4.209676653465676543e-01 1.042936010808539482e-01 -2.885006041028486679e-01 4.818173445886235751e-01 -2.664061217722740738e-01 -4.926803696649822983e-01 -2.018469113486384137e-01 3.805430930223061003e-02 -3.214100877923983246e-01 2.708716520294422447e-01 -4.685255664009233545e-01 4.101994880917888553e-01 2.178060103744178244e-01 -3.264042367915073739e-01 -2.503324029139286089e-01 -3.814703653913728565e-01 -1.054742867459850381e-01 4.462616045306096457e-01 -1.842548961110195560e-01 -3.365600995094762404e-01 -1.827521877688710328e-01 4.899885060611699344e-03 4.717572467473098163e-02 -2.838109356817833644e-03 -4.451173783408713946e-01 3.581277675318501053e-01 -3.226895756123825398e-01 -1.910806756092261749e-01 4.478555234346472402e-01 2.178288500435003050e-01 2.718911271263144691e-01 -3.018418508932244615e-01 2.470378914002080706e-01 4.290164553638542433e-01 6.597404301614760713e-02 -4.032693121822670257e-01 -4.791473093438592956e-01 3.052370976441253769e-01 -4.599084589187708572e-01 3.584319425918592317e-01 3.062946266745444901e-01 4.423068672708462337e-03 -4.972543700368302066e-01 3.462151663538250435e-01 -1.111898747319794711e-01 2.234186849570912459e-01 2.363678546105596190e-01 -1.967585535568969757e-01 -3.824232246159405268e-01 3.226177005746382331e-01 -2.917440659748733456e-01 -3.990165833807337026e-01 -1.033322181422231117e-01 7.385578099643447247e-02 -7.818269995749560497e-02 4.757452421799110986e-01 -4.764482226000440468e-01 3.553552811887213947e-01 -4.532368611720242191e-01 4.603844771775807976e-01 -8.192685823376151533e-02 3.940928901816524998e-01 3.936343384230227976e-02 -3.719646754332920358e-01 3.102548462233780113e-01 2.730112840530371510e-01 -1.690281975383088886e-01 -2.883819314922124732e-01 -3.849520124210504268e-01 1.167281709572301901e-01 2.911034162674200898e-01 -3.821065775433057921e-01 -2.814831626388717423e-01 6.953156300543472668e-02 2.123739421432455921e-01 4.040199114486029974e-01 2.131610821007485449e-03 2.966097855757128809e-01 -3.054246412473204386e-01 4.666635127146118167e-01 -4.351425567308601083e-01 -1.146467508597357049e-01 -4.501394394676988542e-01 -4.728629893502924730e-01 -9.518534553368492024e-02 -4.522670875153440573e-01 1.985894129997669566e-01 -4.830223009100921283e-01 4.823123233751884786e-01 2.747442726535425650e-01 -3.525100082641180466e-01 -3.725163923448438497e-01 1.182602175121879318e-01 -3.894792025906923527e-01 -3.382595898475591056e-01 9.937889515978742816e-02 -2.910906402615236477e-01 1.958114802773720797e-02 1.338059079221565195e-01 -1.749714975171886566e-01 -3.301739762350774376e-01 -2.839768839773530451e-01 -4.418192645828190601e-01 2.444067016122576652e-01 1.443136648569183500e-01 2.242516827860086270e-01 -2.864417102445442065e-02 -6.932709169462167829e-03 2.656177369726125947e-01 -4.612137938347407040e-01 -3.861519093765728994e-01 -2.560310443770438260e-01 -4.536476289636465209e-01 -1.958744279439387781e-01 1.941764327710754356e-01 -2.732504519626350881e-01 1.776953862165837617e-01 -7.924542367988340885e-02 2.938005413691291978e-01 -2.073420748082922815e-01 1.732961357766487909e-01 -1.391812448234587551e-01 -1.262459185165727138e-01 -1.997569139380566128e-01 1.795114985487217263e-01 -2.296419447027042426e-01 -4.567734936492547360e-01 -2.675490404690970547e-01 -4.964576091403716251e-03 -2.551379747815754051e-01 4.114195401126348739e-01 -3.304424557426097198e-01 -2.745595298969805698e-01 3.526945705202093606e-01 2.839709579337392764e-01 5.945328240585969620e-02 -1.039182971770407082e-01 -2.658154000975638809e-01 -3.511826263118900671e-01 -4.260492426326569215e-01 -3.200583157758004060e-01 -2.850424192491780029e-01 -1.709866739654894996e-01 -4.522090327237603402e-01 -3.551799169813027457e-01 -1.907616925293227073e-01 -3.609949032000459579e-01 1.246960709514625260e-01 3.650913776431710667e-01 -1.102779191055940772e-01 2.177059164597373864e-01 3.623894709500539157e-01 5.755410844291400374e-02 -4.486638474114433284e-01 1.730103299190386412e-01 1.502802541865088382e-01 1.946269382580143037e-01 1.954081399341866809e-01 -8.548494824355376553e-02 -5.466590210005770611e-01 2.698856023339228916e-01 1.009744012575013866e-01 -3.680840062356484088e-01 3.652965172748393607e-01 9.626991286165299463e-03 1.280405097165460693e-01 -6.825254814854465890e-02 2.147052588425692188e-01 2.903112012012483145e-01 2.012934706715545918e-01 -1.716789793992163915e-01 -5.432111905365593491e-02 4.607940275984141743e-02 1.954610396971579733e-01 2.616729774988350021e-01 -2.840731946131904925e-02 -2.654204381217492234e-02 1.139743503179293099e-01 -2.246659398892650317e-01 -7.721444927823310767e-02 -3.529787565759821312e-03 4.304970207358894685e-01 -3.117865561564949761e-01 2.144946519276529906e-01 -1.210676327063372332e-01 2.333686758290229035e-01 -4.093809431403910848e-01 1.356239922965184475e-01 -2.897123236079529041e-01 7.486164248867160920e-02 -2.731476121925497380e-01 -7.755210981144125548e-02 2.048749311632731135e-02 -3.625144167558869146e-01 6.959550555382039427e-02 3.376491879556522968e-02 -1.859389104000583326e-01 -2.114849612389937128e-01 -2.992750147237858149e-01 -2.341954579961685878e-01 -3.206251624857728300e-02 -3.547772393494281196e-01 -2.308348479327663322e-02 -1.848769811394150309e-01 -2.266199115385415241e-01 4.115578095322235952e-01 3.368149240944140477e-01 -1.084033058275740702e-01 4.506403269723999738e-01 -3.792277113211569572e-01 1.647673265423260924e-01 2.875330788535148119e-01 2.413654639445828864e-01 2.001070338763441814e-01 4.240509667526969895e-01 2.300592040320200427e-01 -2.596881342189431563e-01 -1.831052897175692862e-01 -2.385022006967615904e-01 1.324256952674034149e-01 -2.207238326683257368e-01 1.928244154335782279e-01 -4.815889827631451015e-01 -4.536762563712707919e-01 -7.772133134439877800e-02 4.009322265134099839e-01 2.138344258303627177e-01 -2.533405262016323323e-01 1.973122356277277056e-01 -4.974019983294618585e-01 -4.867286913681060367e-01 1.112647604283914654e-01 -1.324446107844559350e-01 -1.909929665745087601e-01 4.743174863713203043e-02 -1.925996605172334564e-01 -2.244159776317142529e-01 2.378682859099182090e-01 -4.380928622814856399e-01 2.041751542561020261e-01 -4.007751234592589751e-01 4.059732512044633146e-01 -1.562216583994443381e-02 9.591950789316437687e-02 -4.402288858854950804e-01 2.005135916516960215e-01 4.224839577595944640e-01 -3.653837386602106774e-01 4.725155969969021541e-01 1.506839122831831468e-01 2.859825315034866811e-01 4.361979581099384440e-01 2.438207024663825440e-01 3.902585555595620148e-01 1.669174058228152235e-01 -2.272210763542477086e-01 8.908481645492988266e-02 -2.139736358513690540e-01 -3.040967691375123794e-01 -4.339197093440456121e-01 -1.953816123150996231e-01 2.120313540795537854e-01 2.743550330942665649e-01 3.630075534917099733e-03 -5.052962853238203156e-01 -1.685442662337535979e-01 3.331874777296442436e-01 -5.221387375296403510e-01 1.349635843955452608e-01 1.247550180413082438e-01 -3.182692023970327133e-01 -4.109576959301042831e-01 1.657254835005031735e-01 2.704435096455967136e-01 -1.754454577010695904e-01 -5.231053263704596445e-02 1.862441713753632266e-01 -9.082935591496892058e-02 2.205491070693613442e-01 1.513295040814095771e-01 -4.614976477846579050e-01 -5.691718100722775731e-03 -3.271094867019498365e-01 3.619049550971442653e-01 3.395275662689385410e-01 3.071513356720589893e-01 -4.701436798562890762e-01 -1.220238415586444580e-01 -4.876403937886322204e-01 -3.126211246866479349e-03 1.644327004556851435e-01 4.715746578423315460e-01 -2.385141539467890981e-01 2.822152985433924455e-01 -2.330768097518087500e-01 -4.088605231123229600e-01 -2.299780633601720137e-01 -2.057086881808820045e-02 1.947360697910700475e-02 4.305655686553186978e-01 3.895082272649486588e-01 1.080974312397472298e-01 -3.371094739362884285e-01 -4.125248670096843262e-01 4.777575443695160073e-01 -4.400412796477057298e-02 3.300657102435685664e-01 1.965389867331779339e-02 2.981757842193521468e-01 4.172536485520637051e-01 -3.730160908449017265e-01 -4.172355192048647909e-01 -3.942808092603029557e-01 3.435651686325744691e-01 4.472268863336947842e-01 -1.849274978031187067e-01 3.713943905689539027e-01 -5.143148090121162780e-02 -2.103960334230604023e-01 -1.861801825527631404e-02 -4.170520848224599786e-01 2.570660338850296878e-01 -3.168250915552088820e-01 3.722326790507835548e-01 -5.260236345984382611e-01 -1.733511540946749696e-01 2.668306120552991212e-01 -3.779585240784954503e-01 -3.453590047269000651e-01 -4.282733817517653946e-02 1.485494702754915075e-01 3.665428606809384426e-01 1.009628675829907229e-01 8.724553779597617187e-02 -2.069778041024724902e-01 -2.373196481625237664e-01 1.881051731878620736e-01 1.538687405140966025e-01 -8.592090006656061263e-04 2.985816323045084042e-01 -8.501105765451662244e-02 3.377217687969815696e-01 3.494348172390072116e-01 -2.052308812848620823e-01 -1.680345893941997126e-01 -1.931651729879974577e-01 -2.125889217903016992e-01 -3.301099844999944577e-01 -3.201302488452382189e-01 4.507133680316239288e-01 -4.076499451895922999e-01 4.345269237060813555e-02 4.377422228998522624e-01 1.507721109238720492e-01 4.618792745777280384e-01 -4.346477038687388550e-01 -1.169814457187053902e-01 3.370453741670537129e-01 4.641831142644978203e-01 -2.758238393852364134e-01 -4.854680138832878633e-01 1.715710095571543747e-01 -4.064231572462744246e-01 2.099396291285043348e-01 -3.264167044624807779e-02 2.936863561517840671e-01 5.655794771671773802e-02 -4.884981341431370305e-01 3.107964315060045557e-01 -7.818021719278621384e-02 -4.223748478573574050e-01 -3.716950827336742980e-01 -1.221690344313090121e-01 -3.576053280889538444e-01 3.287920859276701191e-01 -4.154610704459366088e-01 -2.611031888796526146e-01 -1.018606886567308550e-01 4.340525229217027936e-02 -1.936388398580461134e-01 -4.888974660710456721e-01 -2.442255399050109466e-01 1.380252871881572641e-01 -1.696069539311758634e-01 2.423217948701931190e-01 4.371005077655253784e-02 -4.706213281134078996e-01 2.453803799318970691e-01 3.286570131444784271e-01 3.527180447976031585e-01 3.949619909616795127e-02 -7.912492838757807789e-02 4.980281096651422157e-01 -1.712075419048344482e-01 -3.410028936182152304e-02 -3.272931287393585631e-01 3.918879702411022237e-01 1.291583721136565499e-01 -2.807525023552176133e-02 -3.198062571792025799e-01 -4.381431131573135240e-01 1.948709672873121801e-01 2.063072476232138130e-01 1.732858411061397874e-01 -2.888402132502367881e-01 -2.141630993078714670e-02 -3.224360663372626279e-01 2.873659420688390309e-01 -1.817816362224718152e-01 2.992475815402109718e-01 1.457579046486798535e-01 -3.777005561084858382e-02 1.472166236965811725e-01 -4.083316288556935181e-01 -3.134034142888169616e-01 1.695806809004146709e-01 -1.605407865354663288e-01 -2.819752038016485329e-01 3.401303970265990850e-01 -3.863490776430687779e-02 2.361867323360052895e-01 1.110750789389999271e-01 2.096528394669531226e-01 -3.673334189861426902e-01 4.509800088320747857e-01 -3.751320706688080486e-01 1.430428695197820677e-01 -6.029608591737052603e-02 4.040900833748178878e-02 -4.504162481685706765e-01 8.942266471950766071e-02 -3.326009013682857396e-01 -2.429484345767836395e-01 -3.788496362637812087e-01 -4.164495777040141955e-01 1.744506258930584863e-01 -5.900982978338949192e-02 2.042768723667468533e-01 1.693078859045291651e-01 4.099367403318180392e-01 -1.774528009753671420e-01 -4.357552226255943517e-01 -4.700552089223212215e-01 -3.465176631516354022e-01 2.362810857781389162e-01 2.638338222226910279e-02 -5.042928687012004918e-02 -3.474114723023266071e-01 1.040311575015111512e-01 -2.645459137880634692e-02
