4.446319146736420896e-02 2.173599299931879281e-01 7.442465831763664941e-01 -1.096822451225270667e+00 1.211278909331604953e-01 -3.392956630748131808e-01 4.706874979947751614e-01 7.500628147236683141e-01 -1.012154962934606606e-01 -1.353565908290732533e+00
-7.266376728028019205e-02 -1.183709713278860765e+00 -1.045751030578667001e-01 6.585591944305033696e-01 -4.095114689420273346e-01 -9.251554397574539290e-02 4.386563009044179839e-01 -1.057636337578391483e+00 -6.397176425261406896e-02 6.948146446765961493e-01
1.425468521354925633e-01 4.361445868256639269e-01 -3.753086433579007064e-01 -4.875911301703047540e-01 -4.352955513338377380e-01 -6.400573007899760247e-01 -3.122122189803605563e-01 4.386196997018757537e-01 3.160398139357272623e-02 6.721404334204945652e-01
1.592443472853750375e-01 5.746248100607228432e-02 -3.517999774539949387e-01 7.113449538115783621e-01 -2.702595567065531057e-01 -2.503899408850668307e-01 -5.617582373722305178e-01 3.356622051406307206e-01 4.074660765602595158e-01 3.067322715255679233e-01
-5.705959232386224045e-01 9.665876105920153671e-01 -3.237056676183174275e-01 3.835677450262193755e-01 7.691181657377679781e-02 9.609718985335911068e-01 -4.943773130164811902e-01 -8.642819260739796894e-01 -1.865011822326650970e-01 -9.404576356239180424e-01
1.073492256265322908e-01 -1.458163165283627438e-01 1.094960981140746581e+00 1.624201888977010177e-01 -2.527677722506802560e-01 3.945219158303384099e-01 5.232523728613416303e-01 4.402417324896443912e-02 5.668977313044910177e-02 -6.434070280173144196e-01
-1.389619517699310691e+00 8.037204423868071768e-01 5.263905605276346655e-01 -1.619561427957132427e-01 3.179892886371591398e-01 -2.639834599794138037e-01 5.852772162562785985e-01 -1.145020092465926925e-01 2.740852781600727206e-01 -2.445384241495834332e-01
1.144429830926926073e+00 -3.884153661586953188e-01 3.252558628346510078e-02 -3.181668617233324725e-01 -3.906096891190763420e-01 -8.815067553264227529e-02 -5.721139490668366578e-01 -5.567085504692123044e-01 4.049114292164165962e-01 4.156057767917156198e-01
-7.452987351257794879e-02 -2.154938970917829322e-01 -6.778572098847380767e-01 -5.320367823975973298e-01 -4.619705027126917440e-01 5.978586832452601474e-01 -1.324945012709876913e-01 2.908616574961496171e-01 -2.770867030430466671e-01 3.169767041580400652e-02
5.362224189879279956e-01 4.971690511820865965e-01 -1.037758976979425013e-01 3.250104151630586191e-01 3.371844322720113918e-01 5.643544640568051163e-01 -6.881992193222210563e-01 -2.516654766552036682e-01 -1.364765377228835119e-01 -2.492772169199227728e-01
